3152 100
UNK 0.520745 -0.230983 0.390983 -0.521489 -0.139153 -0.105172 0.143123 -0.448802 -0.020032 -0.177609 0.377216 0.460015 0.194378 0.358069 0.826597 0.726548 -0.500820 0.589782 -0.753708 0.033880 -0.334987 0.465511 0.457616 -0.004841 0.430408 0.573002 -0.752866 -0.583826 0.252854 0.126450 0.557925 -0.577670 -0.427741 -0.087929 0.509004 -0.529766 0.496440 0.673876 0.176560 0.630860 0.473489 -0.611716 0.341860 0.759722 0.037674 0.005598 -0.056602 -0.615065 0.462626 0.382316 0.340839 0.602853 0.679939 0.060664 0.421780 -0.422508 -0.347866 -0.153806 0.232418 -0.722811 -0.535115 -0.036657 0.307178 0.122916 -0.329285 -0.147651 -0.084135 -0.267404 -0.724590 -0.260315 0.065736 0.715952 0.772030 0.294273 0.493032 0.261091 0.339733 0.736510 -0.382313 -0.289496 0.060374 0.161851 -0.715666 0.609815 -0.247430 0.102421 -0.593016 0.054267 0.769798 -0.547009 -0.068914 0.532888 0.360044 -0.314279 -0.552908 -0.491775 -0.057648 0.392635 0.169843 0.197907 
</s> 0.033163 -0.018539 0.022821 -0.030188 -0.011002 -0.001862 0.008239 -0.028368 -0.003613 -0.007901 0.026312 0.029285 0.016644 0.021074 0.058210 0.050363 -0.033390 0.040729 -0.051923 0.006213 -0.025073 0.026200 0.034446 0.002718 0.028603 0.036733 -0.046738 -0.041073 0.020209 0.006559 0.041761 -0.043120 -0.024069 -0.009871 0.030332 -0.033454 0.032729 0.042441 0.010938 0.045154 0.036051 -0.043773 0.019291 0.052273 0.004609 0.000111 -0.006794 -0.035830 0.030295 0.021870 0.018470 0.042722 0.043514 -0.000379 0.033014 -0.030339 -0.021713 -0.008213 0.015918 -0.044934 -0.032075 -0.003211 0.020294 0.004369 -0.022196 -0.007826 -0.001019 -0.015788 -0.044978 -0.021549 0.000841 0.045678 0.056079 0.017703 0.037846 0.019084 0.019349 0.048082 -0.021778 -0.023121 0.007073 0.010720 -0.052168 0.035408 -0.012626 0.003678 -0.036437 -0.001126 0.055456 -0.031156 -0.006494 0.036445 0.026745 -0.023915 -0.033762 -0.031160 0.000473 0.023466 0.010012 0.016925 
수 0.036243 -0.015245 0.029786 -0.038706 -0.008710 -0.011388 0.012154 -0.033200 -0.002294 -0.011383 0.020235 0.030140 0.017135 0.027544 0.053957 0.053168 -0.030358 0.043967 -0.054874 0.001607 -0.019916 0.031507 0.030900 -0.004059 0.023936 0.037742 -0.046241 -0.039232 0.019639 0.012038 0.039797 -0.039795 -0.026043 -0.004459 0.031717 -0.039737 0.036452 0.045642 0.014085 0.042293 0.027877 -0.037768 0.021404 0.049658 0.003484 -0.002294 -0.004754 -0.045634 0.026602 0.028779 0.018057 0.035507 0.048305 0.008152 0.025591 -0.023893 -0.018387 -0.007902 0.012250 -0.048024 -0.034092 -0.004396 0.017084 0.009521 -0.019514 -0.005145 -0.003065 -0.015944 -0.052338 -0.017068 0.005689 0.044259 0.055237 0.019557 0.031781 0.013723 0.020876 0.048306 -0.022732 -0.015107 0.004461 0.010849 -0.045399 0.040656 -0.017620 0.008102 -0.038837 0.006589 0.049791 -0.031554 -0.006077 0.039737 0.025489 -0.022730 -0.040179 -0.029509 -0.005605 0.023317 0.014443 0.013378 
그 0.023258 -0.012807 0.017436 -0.025015 -0.002027 -0.002009 0.005803 -0.021373 -0.003910 -0.004260 0.021693 0.021493 0.008148 0.021761 0.040544 0.033625 -0.024670 0.030579 -0.041213 0.005479 -0.013232 0.027012 0.020941 -0.001658 0.020952 0.023865 -0.037848 -0.031102 0.016387 0.003476 0.026245 -0.030866 -0.019000 -0.007760 0.022434 -0.025752 0.025905 0.030545 0.005455 0.030265 0.027938 -0.034277 0.013967 0.034809 0.000475 0.004055 -0.007691 -0.030974 0.021031 0.023122 0.022011 0.033699 0.030034 0.005340 0.017596 -0.016267 -0.017285 -0.009016 0.009685 -0.033979 -0.024689 -0.004826 0.011779 0.006493 -0.019356 -0.008351 -0.005304 -0.009695 -0.034040 -0.017082 0.000379 0.035045 0.042838 0.016458 0.028925 0.014202 0.019004 0.036926 -0.020908 -0.012507 0.001289 0.004655 -0.037175 0.029093 -0.016071 0.009261 -0.029409 -0.001899 0.034891 -0.026161 -0.003269 0.026028 0.022551 -0.018080 -0.027467 -0.021463 -0.004734 0.019869 0.012929 0.007456 
있는 0.028476 -0.007423 0.021941 -0.028877 -0.010982 -0.001056 0.006142 -0.024491 -0.004175 -0.005383 0.018867 0.023001 0.009854 0.021844 0.045253 0.037149 -0.023204 0.030548 -0.037307 0.002851 -0.014747 0.024741 0.024239 0.002823 0.024544 0.029192 -0.042409 -0.024791 0.013047 0.010987 0.023456 -0.030573 -0.018993 -0.006079 0.028662 -0.024070 0.026005 0.033313 0.011360 0.030655 0.027043 -0.033406 0.016755 0.041953 0.000503 0.001299 0.000061 -0.028283 0.020317 0.016253 0.012395 0.029442 0.033444 0.005074 0.018202 -0.024149 -0.019762 -0.004949 0.010359 -0.038136 -0.024863 -0.006387 0.010463 0.004946 -0.012723 -0.003386 -0.008530 -0.012232 -0.037411 -0.011118 0.000124 0.036917 0.039401 0.011572 0.025387 0.014272 0.020858 0.040692 -0.017020 -0.018835 -0.000776 0.011908 -0.037119 0.031660 -0.014138 0.005595 -0.029211 0.003300 0.035220 -0.026079 -0.006308 0.024085 0.020083 -0.012876 -0.029187 -0.024764 0.000956 0.021803 0.007597 0.010281 
있다. 0.016017 -0.008870 0.007709 -0.014492 -0.005777 -0.002737 0.004639 -0.005443 -0.002424 -0.005472 0.010600 0.007213 0.005018 0.005929 0.020160 0.015476 -0.011616 0.014249 -0.021731 -0.001089 -0.006027 0.013825 0.007930 0.001725 0.014305 0.016395 -0.012441 -0.015594 0.007201 0.004238 0.010773 -0.015464 -0.012833 -0.001418 0.006781 -0.009206 0.009580 0.014993 0.005124 0.013648 0.006197 -0.013680 0.009618 0.019662 0.003567 0.000931 -0.002669 -0.014955 0.013835 0.013140 0.006347 0.015152 0.013867 0.001637 0.005182 -0.010005 -0.009534 0.000417 0.009316 -0.019922 -0.012744 0.002397 0.008582 0.004478 -0.010955 0.000527 -0.005662 -0.006986 -0.019007 -0.004183 0.000547 0.021078 0.017947 0.003132 0.006732 0.010738 0.008969 0.018903 -0.013536 -0.002908 0.004893 0.000877 -0.016786 0.015262 -0.001934 0.002995 -0.013422 0.004736 0.019456 -0.012628 -0.000669 0.016767 0.006767 -0.007716 -0.008727 -0.011108 -0.000797 0.004472 0.002176 0.006848 
한 0.014322 -0.005400 0.009917 -0.008106 -0.007594 -0.001573 0.003288 -0.009646 0.003980 -0.008877 0.005473 0.006705 0.009149 0.012817 0.023563 0.015637 -0.011108 0.013365 -0.017836 -0.002814 -0.009057 0.007638 0.011371 -0.003049 0.012552 0.012581 -0.014921 -0.012076 0.007906 0.001726 0.018243 -0.015643 -0.005561 0.000733 0.017216 -0.011657 0.008360 0.011294 0.004218 0.014217 0.011360 -0.014316 0.003791 0.015088 -0.003084 0.002732 0.000349 -0.012494 0.008170 0.011510 0.011945 0.014910 0.013808 0.001386 0.014992 -0.010720 -0.007141 -0.001643 0.008695 -0.020156 -0.017034 0.002633 0.006001 0.007951 -0.003579 0.001106 -0.000510 -0.008398 -0.021768 -0.010271 0.003036 0.016301 0.020817 0.007714 0.013696 0.002587 0.010619 0.017440 -0.006634 -0.007524 -0.001234 0.002024 -0.019575 0.019403 -0.004614 0.002658 -0.009883 -0.001911 0.019779 -0.013044 -0.005061 0.016361 0.004804 -0.009012 -0.012554 -0.015132 -0.004627 0.012512 0.000225 0.009089 
하는 0.012892 -0.001865 0.014035 -0.018648 -0.005886 -0.002531 0.000849 -0.011800 -0.000938 -0.004806 0.010317 0.010281 0.009312 0.011379 0.021564 0.018188 -0.009942 0.020217 -0.018929 0.000300 -0.007352 0.013486 0.013779 -0.000229 0.011059 0.015438 -0.019079 -0.018887 0.010000 0.005076 0.012104 -0.013621 -0.015242 0.001970 0.015135 -0.015876 0.018243 0.023964 0.004612 0.013683 0.011462 -0.020315 0.010320 0.025296 0.002565 -0.001615 0.000884 -0.020972 0.015005 0.006846 0.009863 0.019204 0.018409 0.001405 0.008825 -0.013985 -0.009572 -0.002580 0.002632 -0.025826 -0.012142 0.003601 0.009844 0.008041 -0.010749 -0.002649 0.000216 -0.010138 -0.021583 -0.003508 0.003417 0.020498 0.020804 0.011924 0.011859 0.010966 0.008586 0.022295 -0.013759 -0.005627 -0.002380 0.002846 -0.019077 0.018288 -0.004522 0.003695 -0.012689 0.002541 0.025844 -0.019839 -0.002271 0.019558 0.010657 -0.008046 -0.017713 -0.010022 -0.006678 0.013400 0.000539 0.006004 
이 0.017337 -0.001917 0.012068 -0.016480 -0.000681 -0.001892 0.006357 -0.013829 -0.004518 -0.001695 0.016127 0.016402 0.008504 0.010124 0.023224 0.019051 -0.010234 0.018066 -0.024525 0.001460 -0.010932 0.014459 0.015683 0.003857 0.017049 0.013169 -0.019341 -0.021175 0.011208 0.004525 0.016900 -0.016096 -0.013272 -0.000365 0.013093 -0.013262 0.017745 0.018721 0.008682 0.013839 0.013290 -0.021434 0.013001 0.019389 -0.001941 -0.002191 -0.000335 -0.017745 0.010903 0.012460 0.011784 0.020167 0.023686 -0.001277 0.012941 -0.009525 -0.014411 -0.007810 0.004820 -0.019991 -0.015453 -0.000254 0.012393 -0.000663 -0.012950 -0.002624 -0.006370 -0.012394 -0.024993 -0.004525 -0.002878 0.019384 0.027113 0.011166 0.013929 0.003681 0.011406 0.023337 -0.010081 -0.005662 0.001730 0.004008 -0.023235 0.015190 -0.006615 0.000235 -0.017865 0.006389 0.019875 -0.013165 -0.003901 0.020707 0.008167 -0.012400 -0.014619 -0.010365 0.001319 0.011705 0.007399 0.006394 
더 0.010464 -0.003822 0.007586 -0.012252 -0.005994 -0.002728 -0.000333 -0.011192 -0.000803 -0.003962 0.011704 0.014950 0.004171 0.011283 0.026951 0.016657 -0.017509 0.016092 -0.021898 0.001063 -0.005146 0.016170 0.016689 0.000415 0.010475 0.020580 -0.017008 -0.020745 0.003760 0.007706 0.018615 -0.012448 -0.011583 -0.003709 0.014469 -0.010387 0.013078 0.020560 0.008042 0.020855 0.009709 -0.022101 0.009407 0.020766 0.004890 0.004356 0.002204 -0.020218 0.017999 0.014664 0.006803 0.014652 0.023243 0.000066 0.007981 -0.014843 -0.013952 -0.008311 0.011395 -0.025386 -0.011981 0.001500 0.012749 0.001875 -0.013475 -0.007632 -0.004980 -0.008497 -0.021904 -0.010390 0.004602 0.016894 0.021982 0.006824 0.015884 0.005499 0.009119 0.019744 -0.011713 -0.009210 0.000561 0.007158 -0.019084 0.018381 -0.007877 0.004984 -0.017399 -0.000405 0.026122 -0.019788 -0.002969 0.010398 0.006386 -0.012068 -0.013061 -0.018828 -0.000894 0.008229 0.000452 0.009934 
나는 0.013402 -0.008614 0.014022 -0.018805 -0.004067 -0.003839 0.003216 -0.012567 0.001749 -0.007302 0.011404 0.008604 0.007813 0.013568 0.022377 0.021493 -0.015401 0.013268 -0.023571 0.005320 -0.006068 0.007903 0.015427 0.000675 0.009368 0.011111 -0.020012 -0.011157 0.004578 0.006242 0.010648 -0.016280 -0.009928 -0.000900 0.013813 -0.015644 0.015186 0.022363 0.005381 0.020897 0.012080 -0.019649 0.008067 0.025522 0.001944 -0.001611 -0.006002 -0.020946 0.008567 0.010779 0.012384 0.014122 0.021145 0.006530 0.008184 -0.013135 -0.005342 -0.004771 0.004207 -0.022832 -0.017217 0.001129 0.008068 0.004772 -0.008579 -0.000487 -0.002522 -0.002680 -0.022066 -0.008909 0.004830 0.022180 0.025880 0.010624 0.013949 0.003295 0.004265 0.016525 -0.006682 -0.005387 -0.000147 0.007093 -0.017622 0.011613 -0.011017 0.007170 -0.011131 0.000980 0.018232 -0.009915 -0.000769 0.018654 0.011370 -0.003778 -0.017227 -0.013939 0.002929 0.013418 0.006294 0.002498 
▶ 0.016815 -0.008494 0.011695 -0.016384 -0.006444 0.000780 0.004804 -0.007944 -0.001975 -0.007683 0.009015 0.016081 0.009331 0.009639 0.021345 0.017396 -0.008984 0.020687 -0.022181 -0.002736 -0.013583 0.017381 0.016253 -0.002399 0.012401 0.015196 -0.015961 -0.015851 0.011657 0.007544 0.018893 -0.014239 -0.011113 0.001872 0.017891 -0.018743 0.016378 0.016635 0.009221 0.016997 0.010455 -0.020885 0.006201 0.015768 0.001967 -0.001339 -0.004941 -0.019770 0.012347 0.014481 0.011357 0.018576 0.015295 0.004666 0.013673 -0.008822 -0.010153 -0.005385 0.007293 -0.020891 -0.016110 0.000296 0.007149 0.005733 -0.011958 -0.000365 -0.004461 -0.010594 -0.017166 -0.009067 0.000070 0.017095 0.022157 0.003295 0.017577 0.003161 0.014081 0.022314 -0.006399 -0.011787 0.003443 -0.000475 -0.018684 0.014716 -0.002036 0.002399 -0.014517 0.004416 0.025024 -0.019846 0.000421 0.015721 0.014369 -0.004298 -0.014394 -0.013363 0.003065 0.007057 0.001856 0.008722 
했다. 0.012049 -0.004027 0.008068 -0.010865 -0.006485 -0.004800 0.006458 -0.014953 0.002601 -0.008495 0.008257 0.015100 0.005852 0.012166 0.025262 0.019291 -0.012843 0.020367 -0.019356 0.003521 -0.006171 0.014593 0.008569 0.003920 0.012214 0.020236 -0.024454 -0.014642 0.008374 -0.000718 0.014022 -0.019399 -0.009511 0.001315 0.015030 -0.018773 0.013475 0.020730 0.001194 0.013365 0.012626 -0.013437 0.009083 0.017955 0.004154 0.000469 -0.004447 -0.014643 0.008526 0.009853 0.012454 0.014393 0.023182 -0.002050 0.012835 -0.008159 -0.010432 0.000828 0.008552 -0.015396 -0.011614 -0.004066 0.012425 0.000065 -0.008321 -0.008590 -0.006184 -0.002552 -0.024386 -0.003527 -0.001585 0.014860 0.024349 0.006398 0.018014 0.009568 0.012142 0.015329 -0.013931 -0.007888 -0.002292 0.000761 -0.023742 0.015240 -0.003870 0.004715 -0.016182 -0.002265 0.022673 -0.016082 0.001746 0.017407 0.009007 -0.008785 -0.018370 -0.008355 -0.001992 0.015076 0.008553 0.008351 
것 0.004681 -0.007917 0.002725 -0.004771 -0.003545 0.000674 0.002915 -0.010528 -0.000313 -0.001474 0.001542 0.010538 0.002532 0.008036 0.010121 0.015532 -0.012004 0.014181 -0.007820 -0.000796 -0.002993 0.009286 0.010281 -0.000911 0.009334 0.008536 -0.017479 -0.010234 0.007987 -0.001057 0.008652 -0.008130 -0.004192 0.001372 0.012118 -0.004180 0.011626 0.006925 0.000057 0.008264 0.005000 -0.008206 0.007290 0.016680 0.001634 0.001426 -0.002046 -0.009814 0.004735 0.005913 0.006042 0.009310 0.013425 -0.003497 0.011915 -0.011399 -0.008538 -0.001561 0.007350 -0.012880 -0.008850 -0.004089 0.006682 0.001860 -0.005538 -0.001377 0.001377 -0.009255 -0.016021 -0.004326 0.001246 0.009275 0.018061 0.008653 0.011475 0.001565 0.002173 0.013838 -0.001759 -0.008955 0.004465 0.002991 -0.011731 0.007429 -0.000844 -0.002719 -0.007435 0.001187 0.017967 -0.008106 -0.000530 0.004123 0.008119 -0.001480 -0.008362 -0.007313 0.003585 0.002597 0.001570 0.005092 
내가 0.017292 -0.006130 0.010315 -0.013785 -0.005127 0.001238 0.001803 -0.012653 0.000262 -0.001062 0.005970 0.016140 0.003815 0.006108 0.020057 0.016164 -0.015351 0.020482 -0.023227 0.004153 -0.012037 0.009501 0.012575 -0.003645 0.012634 0.012206 -0.020539 -0.019938 0.009555 0.000779 0.018425 -0.012124 -0.006484 -0.002804 0.011981 -0.012523 0.017237 0.016929 0.006142 0.015717 0.015071 -0.016699 0.004195 0.016290 0.004598 0.001865 -0.005014 -0.012337 0.012464 0.005476 0.009831 0.012471 0.023010 0.000538 0.015385 -0.006349 -0.014177 -0.001513 0.007444 -0.020727 -0.017698 -0.005751 0.003660 0.006598 -0.013452 -0.004400 -0.006803 -0.009046 -0.018374 -0.002166 -0.002579 0.017939 0.023708 0.011147 0.013294 0.009796 0.008910 0.017314 -0.012165 -0.010276 0.006358 -0.000491 -0.023140 0.019751 -0.009139 0.004186 -0.017513 -0.002806 0.024253 -0.014847 0.001885 0.009959 0.008738 -0.011685 -0.017495 -0.008942 0.002876 0.008274 0.009185 0.003559 
대한 0.007457 -0.001519 0.008747 -0.014545 -0.001823 0.001829 0.000766 -0.012797 0.002142 -0.000062 0.010148 0.014603 0.000776 0.007066 0.020033 0.016345 -0.007074 0.013904 -0.013341 0.005187 -0.003359 0.006473 0.008300 0.000001 0.010001 0.015079 -0.019884 -0.010287 0.007939 0.005900 0.010284 -0.010218 -0.013241 -0.004557 0.007498 -0.016633 0.011683 0.011087 0.004566 0.010681 0.006223 -0.008989 0.011315 0.022072 -0.000606 0.002349 -0.005864 -0.016403 0.012689 0.007030 0.004686 0.009351 0.016514 0.000557 0.004844 -0.011376 -0.003663 -0.007230 0.003622 -0.018562 -0.012676 0.000991 0.007358 0.006633 -0.003653 -0.001595 -0.003652 -0.002553 -0.016915 -0.008443 0.005853 0.012907 0.018011 0.007106 0.013830 0.010091 0.006738 0.018398 -0.006676 -0.001595 0.003442 0.005365 -0.014504 0.015202 -0.007360 -0.001901 -0.014664 0.000582 0.014537 -0.014086 0.002338 0.014231 0.010938 -0.006475 -0.014025 -0.007899 -0.000459 0.009854 0.004858 -0.000342 
내 0.011443 -0.004443 0.014595 -0.011763 -0.001515 -0.007027 -0.001052 -0.007296 0.001695 -0.002826 0.014882 0.012059 0.007416 0.010016 0.023932 0.023487 -0.016335 0.015052 -0.018507 0.004451 -0.011131 0.014753 0.011350 -0.003695 0.014243 0.018518 -0.023299 -0.017739 0.010653 0.005563 0.015848 -0.017786 -0.009039 -0.000146 0.018475 -0.015109 0.009641 0.018878 0.008912 0.016773 0.015263 -0.019046 0.010441 0.020481 0.001438 0.004571 -0.005608 -0.014051 0.008205 0.015248 0.014210 0.013854 0.022597 -0.000032 0.010931 -0.014941 -0.007187 -0.004592 0.010383 -0.021454 -0.013971 -0.003716 0.008818 -0.001570 -0.013106 -0.003384 -0.002438 -0.012233 -0.022376 -0.005677 -0.002357 0.023842 0.018846 0.005039 0.012805 0.004569 0.010153 0.021744 -0.011550 -0.008572 -0.003307 0.006448 -0.014964 0.016161 -0.004030 0.000937 -0.013833 -0.000941 0.025193 -0.019821 -0.001172 0.012470 0.014069 -0.011252 -0.017477 -0.015042 -0.001535 0.012675 0.003253 0.003181 
할 0.014466 -0.003889 0.007714 -0.015598 -0.000444 0.000017 0.008034 -0.007823 0.001144 -0.006389 0.010733 0.013480 0.005193 0.012236 0.026781 0.017074 -0.011184 0.011567 -0.020842 0.003560 -0.008256 0.015956 0.011564 0.001564 0.010401 0.015111 -0.021194 -0.014345 0.008055 -0.001677 0.015017 -0.015352 -0.011089 -0.006123 0.011340 -0.014579 0.014960 0.022338 0.007908 0.018990 0.010876 -0.018279 0.010889 0.019106 -0.003491 -0.004743 -0.003824 -0.013737 0.009236 0.013248 0.011822 0.012573 0.021416 -0.000636 0.007244 -0.015433 -0.004362 -0.007901 0.004115 -0.016771 -0.018592 0.001993 0.006399 0.002841 -0.007689 -0.008450 0.002351 -0.010219 -0.020536 -0.002036 0.005951 0.020604 0.024640 0.005269 0.012061 0.003858 0.012758 0.015433 -0.006414 -0.009862 0.001972 -0.000482 -0.019275 0.020963 -0.009529 -0.000726 -0.014931 -0.002542 0.022832 -0.014175 -0.005698 0.017381 0.007983 -0.006076 -0.011202 -0.011134 -0.001125 0.013114 0.007286 0.006840 
그리고 0.003332 0.001257 0.005487 -0.006789 -0.005928 -0.004927 0.005283 -0.005733 0.000172 0.001031 0.005668 0.005474 0.006671 0.005044 0.010278 0.013240 -0.009832 0.004779 -0.013928 -0.003761 -0.009892 0.007011 0.005050 0.003356 0.002842 0.004436 -0.011716 -0.009060 0.004531 0.002136 0.006649 -0.012196 -0.003065 0.002225 0.006300 -0.010201 0.002601 0.005984 0.003749 0.005593 0.003496 -0.008938 0.009908 0.008669 -0.003003 0.003854 -0.003418 -0.011512 0.008800 0.001133 0.004380 0.013920 0.009802 -0.001925 0.009669 -0.010766 -0.005256 -0.003390 0.000743 -0.014219 -0.008161 0.000075 0.003702 0.005372 -0.006290 -0.003902 -0.001073 -0.000435 -0.012827 -0.006149 0.004480 0.009318 0.007517 0.002623 0.008317 0.004055 0.007600 0.011749 -0.008784 -0.006950 0.001612 0.003109 -0.007939 0.010554 -0.007678 0.004824 -0.011733 0.002629 0.007752 -0.005046 0.002306 0.003452 0.006637 -0.007462 -0.012018 -0.011988 -0.003200 0.005929 0.003825 0.001360 
것이다. 0.010102 -0.000335 0.003057 -0.013515 -0.000981 -0.002063 0.004105 -0.004809 0.003335 -0.007509 0.011591 0.005155 -0.000559 0.006029 0.019504 0.012432 -0.005583 0.010372 -0.018887 0.000153 -0.009660 0.009363 0.005332 0.004249 0.006880 0.008622 -0.011153 -0.015592 0.009240 -0.000114 0.008914 -0.006249 -0.004926 0.000011 0.006095 -0.010192 0.008814 0.011860 0.006283 0.012675 0.010135 -0.010922 0.003514 0.010104 0.001802 0.002306 0.003231 -0.007838 0.007745 0.005397 0.004013 0.006692 0.016941 0.002749 0.012770 -0.008918 -0.002074 0.000130 0.005419 -0.015873 -0.012162 0.003336 0.004758 0.007156 -0.001643 -0.004363 0.003101 -0.004681 -0.015164 -0.000657 0.000681 0.008487 0.017011 0.003518 0.012517 0.006386 0.006614 0.009524 -0.006183 -0.009962 0.001522 -0.001944 -0.014751 0.012722 -0.009218 0.000357 -0.015816 0.001469 0.016560 -0.010903 -0.004762 0.014345 0.009087 -0.009489 -0.014698 -0.009038 -0.001673 0.005422 0.004821 0.003719 
많은 0.012100 -0.002392 0.007277 -0.006448 0.001420 0.002255 0.006592 -0.011618 0.001180 -0.005479 0.003582 0.010822 0.002651 0.004767 0.014212 0.014212 -0.006157 0.012968 -0.012364 -0.002494 -0.011300 0.010040 0.011522 0.002091 0.010292 0.013168 -0.019289 -0.011247 0.009824 0.007040 0.008295 -0.010754 -0.004049 -0.004211 0.010580 -0.007528 0.009752 0.018678 0.006009 0.011815 0.010883 -0.011577 0.007692 0.018823 -0.003024 0.004752 0.002553 -0.011331 0.013309 0.006642 0.009196 0.010954 0.015135 -0.000075 0.004517 -0.010589 -0.002178 -0.004772 0.007262 -0.010803 -0.015449 0.003153 0.003984 0.001360 -0.003732 -0.006548 -0.000473 -0.003127 -0.017851 -0.007416 0.004559 0.010765 0.014552 0.003234 0.008636 0.006238 0.002387 0.011509 -0.006809 -0.007756 -0.000301 0.001605 -0.012507 0.015566 -0.003418 0.004615 -0.016481 -0.000257 0.016962 -0.010526 0.003224 0.015120 0.004814 -0.005544 -0.006747 -0.009988 -0.005376 0.005606 0.002549 0.006441 
때 0.007416 0.001819 0.001057 -0.001752 -0.000997 -0.002547 0.003261 -0.006918 0.002546 -0.003093 0.006540 0.008282 0.004150 0.001816 0.005956 0.006426 -0.003777 0.009342 -0.011730 0.000869 -0.000049 0.006430 0.010444 0.004852 0.005401 0.009798 -0.006132 -0.007820 -0.001009 0.001037 0.009143 -0.012062 -0.008657 -0.000603 0.011009 -0.006869 0.001463 0.012092 0.004740 0.012508 0.010810 -0.010739 -0.000205 0.009356 0.001064 0.004362 -0.000980 -0.007870 0.002208 0.004554 0.000067 0.009695 0.011444 -0.002795 0.010150 -0.009921 -0.003739 0.000095 0.004032 -0.011724 -0.010746 -0.004451 0.005285 0.003391 -0.001420 0.000407 -0.000034 -0.000792 -0.007544 -0.004634 0.004965 0.005633 0.006802 0.007717 0.004775 0.003656 -0.000138 0.013961 -0.009127 -0.003873 0.003748 -0.000408 -0.009341 0.007589 -0.001406 -0.001212 -0.009363 -0.001234 0.011108 -0.003495 -0.002535 0.002026 0.003225 -0.004141 -0.010527 -0.007581 0.001098 0.003036 0.004230 0.005261 
한다. 0.006127 -0.006682 0.008811 -0.007121 -0.004851 -0.003449 -0.002923 -0.004593 -0.003584 -0.001004 0.000348 0.004745 0.004816 0.005873 0.009562 0.007167 -0.004345 0.005344 -0.005187 0.001360 -0.000819 0.006079 0.008870 0.004145 0.002127 0.011169 -0.013970 -0.004407 0.004991 -0.002681 0.005122 -0.007700 -0.006934 -0.005719 0.007965 -0.005644 0.006979 0.010975 -0.000472 0.003884 0.007725 -0.004366 0.006121 0.013643 0.003123 0.001919 0.003479 -0.011110 0.001478 0.000060 0.007330 0.012424 0.010944 -0.003747 0.001691 -0.008657 0.000042 -0.006449 0.000715 -0.005435 -0.004668 -0.001841 0.001615 0.000900 -0.008015 -0.005581 0.003803 -0.004133 -0.004978 -0.005079 0.005478 0.012910 0.011372 0.002581 0.003684 0.001623 0.007121 0.013918 -0.005392 0.000825 -0.003339 0.003462 -0.006686 0.006419 -0.003636 0.005233 -0.011529 0.005528 0.006478 -0.002432 0.000311 0.006808 0.004328 -0.008775 -0.004502 -0.002066 0.002538 0.002854 -0.002750 -0.001331 
것이 0.007205 -0.005323 0.002930 -0.004209 0.003283 0.000092 0.005672 -0.003309 -0.001493 0.000624 0.008506 0.000486 -0.001579 0.001683 0.005661 0.004519 -0.004695 0.010405 -0.010384 0.000412 -0.006136 0.007756 0.005831 0.002664 0.009330 0.008104 -0.002822 -0.002104 0.005449 -0.003188 0.001564 -0.002231 -0.004336 0.002815 0.006238 -0.009538 0.001770 0.007885 -0.001097 0.007822 0.006078 -0.003976 0.004497 0.003547 0.005188 -0.004531 -0.000599 -0.008806 0.001018 0.001472 0.001983 0.009245 0.004818 -0.003715 0.004238 -0.000169 -0.003465 -0.005113 0.002039 -0.010277 -0.006809 -0.000679 0.002489 0.000839 0.000462 0.000381 -0.005064 -0.004406 -0.010024 0.001867 0.002345 0.007497 0.010011 -0.001231 0.005949 0.003453 0.002064 0.010169 -0.004319 -0.005336 0.004261 -0.000972 -0.002553 0.002226 -0.005122 -0.003568 -0.005246 0.003216 0.003869 -0.002326 -0.003930 0.008977 0.005693 -0.003130 -0.006172 -0.003116 -0.001017 0.006490 -0.002916 -0.002462 
하고 0.010713 -0.011008 0.012666 -0.016560 -0.008314 -0.007406 0.007956 -0.016553 -0.000858 -0.004736 0.010509 0.010116 0.005168 0.009316 0.020167 0.022798 -0.014891 0.014005 -0.017522 -0.003092 -0.005619 0.013912 0.014132 0.001480 0.009390 0.012180 -0.022564 -0.014930 0.011058 0.003668 0.018701 -0.014310 -0.014224 0.002208 0.016209 -0.014312 0.009141 0.019938 0.007535 0.018841 0.010919 -0.011420 0.009365 0.016731 0.002917 -0.001002 0.003019 -0.011813 0.015198 0.007325 0.005311 0.018147 0.022165 -0.001605 0.012134 -0.012065 -0.011742 -0.006837 0.006618 -0.021220 -0.015299 -0.001713 0.006261 0.005492 -0.005536 -0.008022 0.001573 -0.002321 -0.014688 -0.003619 -0.002212 0.015202 0.016239 0.010754 0.013081 0.010316 0.004812 0.017815 -0.010274 -0.004965 -0.001957 0.005341 -0.023103 0.013642 -0.003462 0.007268 -0.017787 0.004693 0.020372 -0.018575 -0.002100 0.018111 0.011821 -0.006361 -0.012472 -0.014854 -0.006226 0.006016 0.002943 0.000417 
같은 0.004585 -0.004869 0.005103 -0.007561 -0.000533 -0.003123 0.004578 -0.003421 -0.004727 0.000535 0.001568 0.007857 0.001631 0.006781 0.008446 0.010768 -0.000346 0.004665 -0.009544 -0.001154 0.000224 0.002507 0.007237 -0.000662 0.002914 0.005872 -0.008117 -0.007765 -0.000217 0.006099 0.004252 -0.004755 -0.006921 -0.000533 0.002973 -0.001311 0.003073 0.005587 0.003043 0.009614 0.004144 -0.004074 0.001058 0.011089 -0.002934 0.001083 -0.002987 -0.006241 0.002485 0.004954 0.007354 0.009616 0.002452 -0.000062 -0.000640 -0.004419 0.001205 0.000890 -0.001822 -0.002842 -0.010195 0.003415 0.007081 0.003220 -0.005404 -0.005739 0.000700 -0.006513 -0.004408 0.002291 -0.001621 0.003637 0.007558 0.007516 0.009223 0.006032 -0.001068 0.008403 -0.001604 -0.006166 0.001815 0.005153 -0.007292 0.008167 -0.006984 0.002549 -0.005580 0.001441 0.005028 -0.001902 -0.000243 0.006805 0.003290 -0.005984 -0.005409 -0.003975 -0.003280 0.000993 0.001864 0.004919 
어떤 0.005524 -0.003391 0.008423 -0.010134 -0.002553 -0.001683 0.004835 -0.007368 -0.001831 -0.003419 0.009754 0.008512 -0.000968 0.007623 0.009290 0.013550 -0.008439 0.004986 -0.014998 -0.001808 -0.006147 0.005668 0.007727 -0.001105 0.006362 0.004505 -0.012612 -0.012265 0.003320 -0.001415 0.008123 -0.003992 -0.008464 0.000887 0.002799 -0.002913 0.004921 0.008510 -0.000906 0.011330 0.006716 -0.010638 0.007244 0.011960 -0.002747 -0.000514 -0.002372 -0.005316 0.006395 0.003186 0.000167 0.012033 0.008783 0.000442 0.005146 -0.005560 -0.008126 -0.001497 0.000664 -0.012377 -0.003068 -0.002764 -0.000312 0.000048 -0.003790 0.002056 -0.001912 -0.001161 -0.010629 -0.002030 -0.001635 0.005959 0.016412 0.006080 0.008148 0.006989 0.003167 0.009752 -0.004039 -0.004083 -0.003880 0.006918 -0.014066 0.004803 -0.007483 0.002700 -0.012617 0.001534 0.009447 -0.008254 -0.000804 0.006963 0.002057 -0.003291 -0.007708 -0.008432 -0.003822 0.005469 0.002854 0.001983 
다른 0.010522 -0.004609 0.005377 -0.010178 -0.006497 -0.003879 0.006224 -0.007336 -0.001723 -0.005798 0.004240 0.004511 0.000929 0.004184 0.008882 0.012587 -0.007503 0.010460 -0.008463 0.000114 -0.004967 0.004079 0.008700 0.001659 0.004947 0.002273 -0.009817 -0.005815 0.006316 0.000535 0.008488 -0.002327 -0.007042 -0.005331 0.008709 -0.006961 0.005616 0.010987 -0.002392 0.002679 0.002514 -0.003965 0.000028 0.007253 0.001188 -0.000100 0.003128 -0.005912 0.009647 0.000049 0.006373 0.005299 0.009189 -0.001014 0.004823 -0.009205 -0.008092 -0.003806 0.005145 -0.008716 -0.008064 0.003068 0.003532 0.006011 -0.008096 0.000515 0.000393 -0.006115 -0.005378 0.000539 0.002643 0.010200 0.012491 0.007450 0.007695 -0.000153 0.000137 0.003973 -0.002582 -0.002004 0.001407 0.002670 -0.007669 0.006296 -0.006660 -0.002020 -0.003198 0.000973 0.005419 -0.006582 -0.004148 0.009497 0.000733 -0.002472 -0.010874 -0.010279 0.003872 -0.000064 -0.001085 0.000089 
게 0.009527 -0.009180 0.005269 -0.013742 -0.002030 -0.001706 0.003290 -0.011727 -0.004344 -0.004521 0.006341 0.005974 0.007131 0.007690 0.020475 0.010675 -0.011298 0.008196 -0.015241 0.002901 -0.006701 0.010968 0.013470 -0.000636 0.005629 0.014492 -0.019583 -0.007774 0.003252 0.006479 0.007431 -0.011221 -0.005317 -0.002474 0.006948 -0.008002 0.013685 0.011892 0.001269 0.014370 0.013370 -0.013858 0.006286 0.016672 -0.003316 0.004523 0.003164 -0.014610 0.007192 0.011659 0.009205 0.017264 0.010708 -0.002505 0.012801 -0.004883 -0.005316 -0.005742 0.003510 -0.020049 -0.006379 0.004150 0.009391 0.002006 -0.003645 -0.002055 -0.003534 -0.009304 -0.018086 -0.004198 0.001266 0.010120 0.011925 0.004458 0.007897 0.003035 0.009745 0.017083 -0.012178 -0.008733 0.004424 0.000246 -0.016374 0.011773 -0.005061 0.000326 -0.016971 0.004747 0.014158 -0.010626 -0.006471 0.012601 0.007830 -0.005523 -0.015380 -0.006623 -0.004218 0.012763 0.002392 0.006756 
없는 0.005621 -0.003573 0.000778 -0.012242 -0.005861 -0.005522 -0.001393 -0.008516 0.000493 -0.000740 0.007906 0.010015 0.005089 0.007481 0.010137 0.008608 -0.007654 0.004117 -0.013503 -0.000126 -0.009580 0.006647 0.008860 0.003003 0.009368 0.006885 -0.007455 -0.010752 0.006652 -0.001527 0.012801 -0.006856 -0.001744 -0.004253 0.004457 -0.012441 0.002370 0.011227 0.000593 0.010586 0.011458 -0.013712 0.004330 0.015263 -0.004048 0.003461 0.002290 -0.005549 0.007483 0.005043 0.006543 0.012896 0.011853 0.005237 0.006576 -0.004050 -0.007393 -0.003405 0.005731 -0.014368 -0.003447 0.001621 0.008643 -0.002127 -0.008901 -0.004181 -0.004218 -0.008275 -0.010811 -0.006898 0.005717 0.007882 0.012466 0.008234 0.009140 0.000544 0.003784 0.006488 -0.006542 -0.002351 0.005388 0.003937 -0.011388 0.004522 -0.002350 -0.002328 -0.005541 0.003125 0.014184 -0.007132 -0.005918 0.012352 0.003653 -0.008364 -0.007580 -0.005635 -0.002749 0.006884 0.003672 0.004162 
하지만 0.003905 -0.006876 0.003608 -0.003926 -0.001937 0.002224 -0.000100 -0.006410 0.002209 -0.007466 0.009980 0.009468 0.001669 0.007309 0.013836 0.007214 -0.012498 0.005022 -0.008991 -0.001516 -0.003119 0.007478 0.003381 -0.001001 0.002021 0.011953 -0.009821 -0.006528 0.001792 -0.002368 0.007857 -0.013383 -0.008239 -0.004942 0.008040 -0.008345 0.012944 0.010413 0.004169 0.010211 0.007306 -0.010102 0.001205 0.014415 -0.002842 -0.002546 0.003864 -0.008994 0.006487 0.009051 0.005072 0.011077 0.015018 -0.003017 0.005977 -0.005883 -0.008851 -0.003420 0.008501 -0.011284 -0.009470 -0.004414 0.008659 0.000690 -0.004643 0.002181 -0.004019 -0.006283 -0.016609 -0.005750 0.003931 0.008107 0.017374 0.004153 0.008080 0.001437 0.009613 0.009635 -0.009881 -0.007244 -0.002268 -0.000718 -0.009812 0.009124 -0.000236 -0.000431 -0.008545 0.004463 0.015467 -0.008719 -0.005588 0.005798 0.002445 -0.007941 -0.009988 -0.004716 -0.003696 0.004661 0.005006 -0.001133 
또 0.002952 -0.003714 0.009148 -0.006777 -0.006574 0.003505 -0.002088 -0.005492 0.000693 0.000741 0.000107 0.009531 0.001263 0.001784 0.012343 0.003480 -0.004932 0.011194 -0.007540 -0.002072 -0.000911 0.004377 0.007012 0.004506 0.009263 0.007684 -0.012281 -0.010725 0.007093 0.001182 0.010881 -0.004277 -0.008933 0.002831 0.010556 -0.001272 0.007060 0.004996 0.005749 0.007554 0.006930 -0.006700 0.000028 0.009174 0.001586 -0.000457 -0.001669 -0.007654 0.000762 0.005317 0.003059 0.010167 0.003499 0.002439 0.006494 -0.008414 0.000551 -0.000548 -0.002004 -0.012657 -0.009569 -0.000779 0.003556 -0.003592 -0.007786 -0.006709 0.002000 -0.003432 -0.010668 0.001221 -0.003450 0.012881 0.003991 -0.001431 0.001163 0.007279 0.003224 0.009846 -0.005989 -0.002811 -0.000632 0.005075 -0.008914 0.004728 0.000878 0.004767 -0.010134 -0.000298 0.006754 -0.004050 -0.001166 0.006029 0.001550 0.000633 -0.008751 -0.010226 0.001204 0.006686 0.006812 0.001233 
있었다. 0.008296 -0.001187 0.002020 -0.001956 -0.002347 -0.005400 0.002161 -0.001235 0.003274 -0.001588 0.003432 0.002918 0.003315 0.009190 0.006945 0.004439 -0.001868 0.009618 -0.009025 -0.001399 -0.006719 0.006164 0.006938 0.001039 0.003539 0.009498 -0.007760 -0.006842 0.004541 0.001503 0.011400 -0.005371 -0.001665 -0.003089 0.005081 -0.004771 0.006099 0.012671 0.004547 0.007570 0.009950 -0.010578 0.005311 0.010572 0.002993 -0.001793 -0.005581 -0.004437 0.001125 0.005836 0.006725 0.009231 0.003843 0.005776 0.005605 -0.000419 -0.000378 -0.006123 0.000737 -0.004834 -0.004011 -0.004100 0.002981 -0.001079 -0.003532 0.003078 -0.004649 -0.000864 -0.011347 -0.005545 -0.002855 0.009565 0.010567 0.000783 0.008103 0.006624 0.004957 0.009160 -0.007278 -0.000605 0.003288 -0.001383 -0.009503 0.003338 -0.003106 -0.000665 -0.006493 0.003380 0.011878 -0.006041 -0.002558 0.007268 0.000677 -0.005705 -0.008608 -0.008162 -0.003401 0.008582 0.007130 0.002491 
그런 0.016326 -0.004284 0.006703 -0.018728 -0.007966 0.001712 -0.000923 -0.009714 -0.004023 -0.003983 0.014413 0.009238 0.003095 0.010003 0.027175 0.015114 -0.010169 0.011276 -0.017104 0.003284 -0.009541 0.008160 0.013919 0.000217 0.007184 0.012790 -0.019370 -0.018455 0.002419 0.007671 0.011656 -0.016138 -0.015567 0.000511 0.016536 -0.013648 0.016972 0.013719 0.003433 0.012533 0.014064 -0.019075 0.008599 0.016963 0.003534 -0.000094 -0.002701 -0.015472 0.012493 0.011556 0.009283 0.018181 0.020603 -0.003278 0.013116 -0.011323 -0.012963 -0.007810 0.002858 -0.024257 -0.018853 -0.001820 0.003657 -0.001570 -0.010796 0.000277 0.002632 -0.002397 -0.023833 -0.003436 0.000945 0.017589 0.024817 0.012392 0.017463 0.005633 0.006657 0.022115 -0.006385 -0.011353 0.003796 0.006157 -0.020536 0.020952 -0.009077 0.007032 -0.019522 0.003029 0.017592 -0.014963 -0.002921 0.010952 0.012922 -0.008236 -0.014487 -0.011934 -0.001197 0.011180 0.005057 0.006296 
것은 0.003678 0.000754 0.000913 -0.009271 0.003729 0.002088 0.001091 -0.008186 0.002880 0.000867 0.006951 0.001747 0.004086 -0.000334 0.004391 0.003778 -0.008203 0.005686 -0.004058 -0.003345 -0.001469 0.001776 0.008796 -0.001945 0.002495 0.006278 -0.005268 -0.005920 0.005099 0.002998 0.002632 -0.009578 -0.000303 -0.005287 0.001152 -0.003977 0.001741 0.004920 -0.003108 0.009370 0.004747 -0.003599 0.000880 0.008735 0.005148 -0.001710 -0.001368 -0.001088 0.002303 0.003236 0.002065 0.006930 0.002554 -0.000519 0.006814 -0.007314 -0.003322 0.003568 0.000374 -0.003418 -0.000937 0.001281 0.004009 0.001432 -0.004747 -0.002238 -0.003897 -0.003979 -0.001394 -0.007085 -0.001522 0.004992 0.011012 0.004468 0.008996 0.002765 -0.000770 0.002760 -0.001736 -0.004995 0.002456 0.006203 -0.003284 0.006601 -0.007079 0.003646 -0.003256 -0.000110 0.005938 -0.006211 0.004226 0.008852 -0.000003 -0.005718 -0.002035 -0.000643 -0.005462 0.000797 0.005732 0.003296 
안 0.006566 -0.002404 0.010027 -0.010590 -0.001542 -0.006340 0.006442 -0.008982 -0.005009 -0.003423 0.009098 0.008676 -0.001244 0.008719 0.007248 0.011368 -0.005887 0.006629 -0.014905 0.004843 -0.000206 0.003367 0.003903 -0.000894 0.002258 0.005907 -0.008618 -0.008322 0.000241 0.001423 0.002806 -0.012919 -0.004905 0.000119 0.004073 -0.008087 0.002987 0.008333 0.002315 0.012640 0.009024 -0.009301 0.000467 0.010703 -0.003252 0.004183 0.002291 -0.007869 0.003923 0.008530 0.007603 0.004417 0.009190 0.002878 0.008286 -0.009005 -0.008234 0.001409 0.004797 -0.012876 -0.007911 -0.003770 0.003601 0.002904 -0.005218 0.001904 -0.004214 -0.005207 -0.008624 0.001010 -0.000967 0.006720 0.007548 0.003147 0.004640 0.003255 0.004360 0.009111 -0.000721 -0.000352 0.004626 -0.002357 -0.006924 0.010472 -0.000212 0.004952 -0.011904 -0.000995 0.014817 -0.010568 -0.000431 0.010475 0.008255 -0.008451 -0.005927 -0.004085 -0.004638 0.006377 0.001472 -0.001858 
이런 0.008796 0.000063 0.005568 -0.009584 -0.003791 -0.002272 0.003617 -0.004123 -0.000711 0.001898 0.006574 0.005041 0.006159 0.008183 0.012895 0.009745 -0.008968 0.009567 -0.007020 -0.004007 -0.008608 0.010432 0.010544 -0.002867 0.011162 0.003687 -0.009937 -0.008246 0.005584 0.002406 0.007518 -0.005955 -0.008171 -0.002803 0.010213 -0.008929 0.003802 0.009697 0.007252 0.008637 0.008371 -0.005905 0.001031 0.014577 0.000718 -0.004427 0.001678 -0.013528 0.004700 0.006055 0.008544 0.006845 0.015122 0.001217 0.008242 -0.011245 -0.005080 -0.006952 -0.001127 -0.013360 -0.007502 -0.003190 0.006293 0.003456 -0.004992 0.001039 -0.005039 -0.004917 -0.011893 -0.003348 0.004088 0.008163 0.010180 -0.000040 0.011622 0.002029 0.008504 0.009738 -0.001206 -0.008954 0.001530 0.006235 -0.006866 0.009451 -0.007225 0.001349 -0.006759 0.000878 0.014695 -0.013151 0.003876 0.003684 0.001847 -0.009692 -0.008447 -0.010511 -0.004868 0.006714 0.006186 0.001078 
함께 0.001969 -0.004682 0.007549 -0.001282 -0.005916 -0.002299 0.006372 -0.003296 0.002212 0.000789 -0.000570 0.003715 0.004112 -0.000076 0.005476 0.008999 -0.003757 0.011581 -0.010954 -0.001881 -0.008450 0.004536 0.005445 0.000098 0.000950 0.001696 -0.009145 -0.010602 0.002637 -0.002918 0.004011 -0.007964 -0.001764 0.002315 0.002574 -0.009343 0.004556 0.006926 0.002371 0.005216 0.001120 -0.009963 0.002419 0.012698 -0.003756 -0.004115 -0.004809 -0.005532 0.005683 0.001630 0.001765 0.004021 0.006879 0.004557 0.007870 -0.004105 -0.008123 0.000214 -0.000895 -0.013186 -0.001579 -0.000303 0.008496 0.001767 -0.006311 -0.002944 0.002338 -0.001697 -0.012814 -0.006804 0.005094 0.011075 0.010465 0.000948 0.007233 0.004779 0.007595 0.009580 -0.005213 -0.001399 0.004925 -0.000241 -0.012624 0.008041 -0.001427 -0.000886 -0.005512 0.001825 0.004437 -0.002671 -0.004363 0.008910 0.002168 -0.003088 -0.007828 -0.010349 -0.003811 -0.000023 -0.002672 0.003164 
잘 0.007068 -0.001552 0.006001 -0.006859 0.002253 -0.000371 -0.002491 -0.000761 -0.000290 0.002672 0.001746 0.008596 0.006620 0.003170 0.006192 0.010396 -0.004109 0.002222 -0.003722 -0.000994 -0.001315 0.006276 0.007443 0.004005 0.003920 0.007197 -0.007507 -0.002735 0.006839 -0.002705 0.001262 -0.002200 -0.000837 -0.000042 0.007183 -0.001252 0.009665 0.004701 0.006062 0.010282 0.009641 -0.004172 0.004326 0.005580 0.002958 -0.002536 -0.000028 -0.003288 0.008495 0.007561 0.001041 0.008424 0.009860 -0.002736 0.007957 -0.003839 -0.001164 -0.001062 0.004635 -0.009391 -0.007072 -0.003902 -0.001834 0.001839 0.000034 -0.000774 0.003834 -0.001452 -0.010960 0.001181 0.005324 0.008214 0.007516 0.000253 0.004940 0.000488 0.006481 0.011796 -0.006678 -0.001238 0.005224 0.000104 -0.007061 0.003370 -0.001494 0.000204 -0.009793 0.004724 0.009894 -0.007110 -0.005378 0.007240 0.001876 -0.000953 -0.010121 -0.002602 -0.004378 0.001611 0.001349 0.002558 
대해 0.005383 0.000148 0.000877 -0.005393 -0.005271 -0.005924 0.000629 -0.009466 0.000388 0.000583 0.006350 0.002614 0.003852 0.002617 0.016335 0.011996 -0.009196 0.004906 -0.013876 0.001534 -0.004402 0.005890 0.007457 -0.003873 0.010256 0.004638 -0.011603 -0.006817 0.004178 -0.001847 0.012599 -0.009558 -0.003584 -0.005554 0.002989 -0.011194 0.011642 0.013125 0.005615 0.008527 0.002384 -0.013910 0.008713 0.016014 0.002675 -0.001723 -0.001984 -0.007785 0.006655 0.002100 0.005026 0.003797 0.013311 0.003113 0.003413 -0.003028 -0.003929 -0.005085 0.001676 -0.006497 -0.011796 0.002701 0.004423 0.004088 -0.002939 -0.002128 -0.003914 -0.004235 -0.010030 -0.005049 0.004252 0.010904 0.009020 0.007237 0.005709 0.002816 0.004629 0.005919 -0.004782 -0.000873 -0.003573 0.000357 -0.013455 0.011223 -0.001448 0.003503 -0.011781 0.000619 0.006268 -0.004797 -0.002936 0.003387 0.004173 -0.007588 -0.011398 -0.011040 0.003165 0.001595 0.003394 0.006526 
위해 -0.000450 -0.005633 0.006696 -0.000701 -0.002147 0.003569 -0.003857 -0.004106 -0.002919 -0.002034 0.003224 -0.002113 -0.003370 0.003988 0.009075 0.005821 0.000838 0.002446 -0.002093 0.003015 0.002888 -0.000210 0.001479 -0.004346 0.001716 0.007618 -0.005289 -0.006302 0.002740 0.005407 -0.001481 -0.005613 -0.003645 -0.003382 0.004573 -0.006593 0.005629 -0.000657 -0.000633 -0.000580 -0.000394 -0.006094 0.005077 0.002423 0.004891 -0.004916 0.004357 0.000425 0.002765 -0.001835 0.001866 0.002982 0.001703 -0.002490 0.006343 0.000634 -0.005065 0.002211 -0.002469 -0.008685 -0.000195 -0.002516 0.005704 0.004426 -0.003527 -0.000495 -0.004846 -0.006005 -0.004885 -0.003265 0.002458 0.008361 0.000924 0.002720 0.001166 0.006354 0.000013 0.009044 0.001192 -0.005650 -0.001582 -0.003617 -0.002074 0.000441 -0.005832 0.005526 -0.007567 0.004569 0.009138 0.001301 0.000023 0.006012 0.001150 0.000632 -0.006907 -0.007323 0.002271 -0.000314 -0.003105 0.001312 
것을 0.001202 0.001175 0.004300 -0.006430 -0.003028 0.003603 0.001863 -0.006046 -0.002988 -0.004801 0.007857 -0.000382 0.004118 0.001943 0.011036 0.007085 -0.000868 0.004375 -0.011747 -0.001624 -0.003218 0.006499 0.005315 -0.000170 0.006540 0.007629 -0.011901 -0.002933 -0.000580 0.005060 0.001684 -0.007613 -0.004034 -0.003505 0.002027 -0.007403 0.006250 0.003626 0.001580 0.008902 0.003710 -0.002025 0.008041 0.005266 -0.001111 0.000684 0.000550 -0.002371 0.009380 0.002858 -0.000952 0.001000 0.007347 -0.002852 -0.000436 -0.000378 -0.002023 0.003371 -0.002548 -0.007376 -0.004610 0.003174 0.002815 -0.001763 -0.004520 -0.002285 -0.001441 -0.001811 -0.008195 -0.005571 0.003380 0.005764 0.007229 0.007795 0.000379 0.001658 0.006398 0.003114 -0.007900 -0.003728 -0.001599 -0.002279 -0.010158 0.003309 -0.000744 -0.000443 -0.009720 -0.000820 0.012056 -0.007090 0.000774 0.006305 0.008349 -0.001108 -0.007169 -0.008074 -0.004892 -0.000772 -0.001999 0.004653 
자신의 0.000838 -0.006081 0.005309 -0.010446 -0.002319 0.003099 0.005924 -0.008334 0.003976 -0.006499 0.008575 0.009286 0.002107 0.006050 0.006818 0.011648 -0.007535 0.002143 -0.007511 0.002742 -0.002435 0.003649 0.004377 -0.001130 0.004179 0.006849 -0.008963 -0.009340 0.002880 -0.003291 0.008951 -0.010691 -0.006277 0.004051 0.009838 -0.008244 0.007408 0.003601 0.004268 0.010696 0.002981 -0.010553 -0.000816 0.012965 -0.001517 0.001821 -0.000138 -0.003207 0.009444 -0.000493 0.000669 0.008437 0.002257 0.000803 0.008787 -0.003567 -0.008179 -0.000602 0.006694 -0.009697 -0.006112 -0.000875 0.006920 0.000968 0.000444 -0.002857 -0.000737 -0.001438 -0.009428 -0.000965 -0.002800 0.010492 0.011958 0.006312 0.002818 0.002825 0.003028 0.010074 -0.004157 0.001424 0.002987 -0.000177 -0.004702 0.001791 -0.000750 -0.002285 -0.002653 -0.001678 0.012072 -0.002462 -0.005361 0.007342 0.002168 -0.007003 -0.003412 -0.003947 0.003016 0.001309 0.004908 0.003987 
중 0.001848 0.001881 -0.001302 -0.001839 0.000308 -0.003231 0.003576 -0.001330 -0.004746 -0.000503 0.005838 0.004991 0.001956 0.001047 0.005965 -0.000447 -0.002883 0.001143 -0.005182 0.000567 0.001169 0.006222 0.002097 0.004699 0.006694 0.006649 -0.003428 0.000657 -0.001078 -0.003891 0.001768 -0.003657 -0.006014 -0.004602 0.000220 -0.005330 0.000020 0.005993 0.000557 -0.000072 0.003798 -0.007187 -0.000541 0.003847 0.002981 0.000421 -0.003465 -0.001783 0.003192 0.002168 -0.000340 0.005275 0.000580 -0.001290 0.002227 -0.000556 -0.000650 0.002414 0.004548 0.001428 -0.001608 -0.000531 0.004403 -0.003965 0.002527 0.000069 -0.003669 -0.005981 -0.003731 -0.004438 0.004030 0.007955 -0.001646 0.005744 0.000215 0.003521 -0.002469 -0.001502 0.003079 -0.000368 -0.000595 -0.002465 -0.000555 0.003413 0.002354 0.002332 -0.001997 -0.004249 0.004990 -0.004296 -0.001297 0.003260 0.004944 -0.004258 -0.004609 -0.006748 -0.003111 -0.001344 0.005634 -0.000903 
건 0.000431 0.002913 0.004193 -0.005731 0.001223 0.001386 -0.003125 -0.002510 0.002023 0.002359 0.006752 0.005842 -0.002254 -0.002225 0.009503 0.002954 -0.007767 0.001688 -0.009419 0.001966 -0.004478 0.001339 0.001394 0.004010 0.002181 -0.000369 -0.009195 -0.006445 -0.002620 -0.003534 0.004112 0.000930 -0.004624 -0.005415 -0.001129 -0.005901 0.002842 0.001946 0.003127 -0.000536 0.004169 -0.002902 0.003485 0.001601 0.004809 -0.003023 0.004610 -0.004796 -0.000218 0.006059 0.003207 0.003100 0.002111 -0.002560 -0.002074 0.001790 0.001484 -0.000117 0.005077 -0.000653 -0.007710 -0.005118 -0.001718 0.002651 0.001614 -0.005660 -0.003375 -0.000691 -0.004672 0.000375 -0.001737 0.005574 0.004689 0.005531 0.006879 0.002926 0.006681 0.007062 -0.006893 -0.001806 -0.003321 0.002475 -0.002400 0.003451 -0.001585 -0.000204 -0.000166 0.004289 0.009452 0.000900 -0.003406 0.004682 0.004177 -0.001287 0.000567 -0.000450 -0.005164 -0.001106 0.001194 0.000745 
어떻게 0.009577 -0.001187 0.000498 -0.005696 0.001142 0.002051 -0.000983 -0.004359 -0.000258 0.001996 -0.000310 0.008491 0.005811 0.007895 0.010432 0.004023 -0.004887 0.002292 -0.006158 0.001044 -0.000754 0.006068 0.010055 0.000319 0.000583 0.009100 -0.004884 -0.009085 0.000885 -0.000766 0.007809 -0.002740 -0.006634 -0.001464 0.003579 -0.001974 0.006735 0.008061 0.000820 0.004989 0.000745 -0.006324 -0.000511 0.004477 -0.002879 -0.001471 0.001312 -0.004496 0.004864 0.000060 0.006559 0.010177 0.002519 0.004816 0.008206 -0.003909 -0.008289 -0.003120 0.003080 -0.006588 -0.004805 -0.000691 0.007517 -0.000648 0.000627 0.001599 -0.000341 0.001492 -0.003932 -0.001332 -0.002117 0.004749 0.010518 0.004801 0.008278 0.000853 0.008098 0.003220 -0.001327 -0.006315 0.002756 0.000060 -0.004175 0.010694 0.001547 0.004200 -0.009755 -0.000867 0.011310 -0.008079 0.003354 0.008442 0.006514 -0.005558 -0.001488 -0.005080 0.002398 0.004384 0.004646 -0.002581 
걸 0.010651 -0.003100 0.009683 -0.007730 -0.005534 -0.005671 -0.001691 -0.005992 0.002517 -0.004330 0.008388 0.011341 0.006364 0.010622 0.015211 0.015795 -0.011491 0.015968 -0.018268 0.000535 -0.004919 0.004433 0.012220 -0.000296 0.008708 0.012736 -0.013120 -0.010568 0.000134 0.006127 0.013210 -0.014864 -0.011209 -0.003626 0.009179 -0.013261 0.013259 0.017358 -0.001090 0.011213 0.011751 -0.016956 0.003373 0.015601 -0.002882 -0.002289 -0.003937 -0.008927 0.007674 0.011548 0.007020 0.015452 0.017240 0.003838 0.009115 -0.003971 -0.006915 0.001272 0.001553 -0.017116 -0.015491 -0.004314 0.004677 0.006796 -0.003852 -0.005550 -0.001735 -0.001746 -0.010581 -0.006074 0.004371 0.010865 0.016041 0.005860 0.005608 0.006819 0.006930 0.016758 -0.005958 -0.004914 -0.002574 0.006761 -0.015070 0.009245 -0.008263 0.004727 -0.007542 0.000941 0.019219 -0.009592 -0.003493 0.008840 0.008350 -0.003532 -0.009758 -0.006196 0.001769 0.010718 0.004300 0.002385 
이야기를 0.006343 -0.001873 0.005838 -0.001944 -0.002444 0.001444 -0.002068 -0.005712 -0.000903 -0.001893 0.009045 0.003571 0.006229 0.005577 0.011686 0.006752 -0.009058 0.009824 -0.007681 0.000678 -0.003826 0.001730 0.008483 -0.004546 0.002752 0.011498 -0.012241 -0.007336 0.007867 0.004454 0.003667 -0.010145 -0.009993 0.001191 0.002031 -0.005247 0.007444 0.012254 0.003433 0.008449 0.004851 -0.004555 0.001968 0.011723 0.000457 -0.003534 -0.004818 -0.011355 0.003632 0.008529 0.005499 0.009710 0.005936 0.001210 0.005300 -0.009594 -0.003654 -0.006607 0.005754 -0.012426 -0.005870 -0.003122 0.005891 0.003526 0.000207 -0.001063 0.000901 -0.002506 -0.007343 -0.005023 -0.000424 0.009886 0.012828 -0.000369 0.004675 0.007211 0.004919 0.008850 -0.005746 0.000478 -0.002840 0.000606 -0.007883 0.012259 -0.005559 0.003611 -0.006985 -0.002734 0.014049 -0.002830 0.001901 0.011295 0.005965 -0.001252 -0.010692 -0.010562 -0.000537 0.008625 0.006018 0.004872 
여성의 0.003137 -0.003038 0.001310 -0.000415 -0.000035 0.000233 -0.002327 -0.003559 -0.003498 -0.003963 0.004010 0.003033 0.000114 0.004196 0.007042 0.003986 -0.005841 0.000908 -0.009037 -0.001494 -0.003799 0.002810 0.002619 -0.002960 0.002874 0.001726 -0.008082 -0.000583 0.006102 -0.001240 0.000861 -0.005534 0.000265 0.000138 0.004430 -0.005389 0.001549 0.004831 -0.001654 -0.000234 0.002167 -0.000980 0.004933 0.005381 -0.002500 -0.001348 0.004134 -0.004512 0.005060 0.006652 0.002941 -0.000618 0.008170 -0.002687 0.007554 -0.001394 -0.007073 -0.001319 0.005045 -0.006295 -0.002134 -0.002618 -0.000474 0.003454 -0.002101 0.002672 -0.000436 -0.005488 -0.007347 -0.000469 -0.003173 0.008484 0.006595 0.006071 0.000268 0.001708 0.005499 0.001198 -0.001092 -0.002300 -0.002164 -0.000338 -0.006563 0.007994 -0.005446 0.005349 -0.001616 -0.000012 0.005701 -0.000560 -0.005241 0.004542 -0.001547 -0.007088 -0.000842 -0.006235 -0.002020 0.000472 0.001759 0.003229 
아니라 0.004139 -0.000255 -0.000951 -0.004720 -0.002487 -0.002569 0.004576 -0.003933 -0.001785 -0.003212 -0.001757 -0.001272 0.002498 0.000513 0.006984 0.003362 -0.002019 -0.001032 -0.005744 0.000834 -0.000212 0.003165 -0.000779 -0.001798 0.004280 0.005856 -0.008361 -0.008000 0.002412 -0.000330 -0.001117 -0.005575 -0.007046 -0.003851 0.005921 -0.003373 0.006682 0.009098 0.002600 0.003788 0.006668 -0.003334 -0.001530 0.007598 -0.001955 -0.003546 -0.000735 -0.007911 -0.001700 0.006734 0.006720 0.007093 0.002561 0.005166 0.001659 0.002330 0.002837 -0.002725 0.000564 -0.005596 -0.003418 0.001832 0.004546 0.003654 -0.005712 -0.000252 -0.005376 0.000400 -0.007753 0.000193 0.002040 0.004726 0.006481 0.005080 0.004923 -0.001596 -0.000207 0.002437 0.001195 0.001410 0.002315 0.000293 -0.007526 0.007446 -0.003915 0.001653 -0.007323 -0.002955 -0.000033 -0.003988 -0.004154 0.002029 -0.000260 0.002963 -0.000893 0.000885 -0.004706 0.000420 -0.001705 0.003097 
가장 0.008078 -0.001258 0.003890 -0.007033 -0.004844 -0.002908 0.003363 -0.004035 -0.002064 0.000194 0.005949 0.001877 0.005664 -0.002561 0.004985 0.005511 -0.006682 0.000035 -0.002240 0.004967 0.000189 0.004105 0.007024 0.004833 0.003525 0.000388 -0.008975 -0.002943 0.005595 -0.003888 0.003241 -0.006502 0.001096 -0.001509 -0.000022 -0.006823 -0.001510 0.001776 0.000144 -0.000115 0.007782 -0.004762 0.001658 0.007286 -0.003722 0.003609 -0.005083 -0.008370 0.004506 -0.000878 0.005720 0.005884 0.000351 -0.002563 0.002151 -0.002607 -0.001774 0.002518 0.000186 -0.004684 0.000774 -0.003814 -0.002271 0.002529 0.002059 0.003411 0.001166 -0.005252 -0.008849 -0.003990 0.003585 0.004930 0.004973 0.000586 -0.000478 0.001896 -0.002178 0.004414 -0.007102 0.002962 0.002140 -0.000470 -0.009180 0.004270 -0.003464 -0.003647 -0.002559 0.002327 0.005791 -0.004654 0.003913 0.006940 0.000775 0.002347 -0.006166 -0.001923 0.004272 -0.001053 0.001485 -0.001457 
다시 0.001577 -0.006611 0.007122 -0.003223 -0.001314 -0.000765 -0.003149 -0.002737 0.003014 -0.001467 0.006337 0.001192 0.004538 0.008083 0.012654 0.011141 -0.008736 0.009127 -0.003996 0.000490 -0.004564 0.000180 0.001566 0.004207 0.001051 0.010380 -0.009890 -0.007147 0.006756 -0.001309 0.004892 -0.001748 -0.001666 0.002349 0.001552 -0.009139 0.008071 0.007329 0.006433 0.006122 0.010165 -0.007395 0.001976 0.006615 -0.001197 -0.001658 0.002589 -0.010649 0.005674 0.001938 0.001488 0.005283 0.006995 0.001213 0.000026 -0.000001 -0.008446 0.001472 0.003461 -0.010132 -0.003711 -0.003857 0.003409 -0.002164 -0.005367 -0.006372 -0.004501 0.000770 -0.008171 0.001404 0.005320 0.012344 0.013382 -0.000549 0.005732 -0.001345 0.007321 0.005501 -0.006575 -0.000270 0.001555 0.003541 -0.012239 0.008443 0.000214 0.003230 -0.003284 0.003844 0.004878 -0.007043 0.004097 0.005807 0.002315 -0.002426 -0.003393 -0.003075 -0.001453 0.004560 0.006488 0.001356 
말을 0.002023 -0.001404 0.001761 -0.006908 0.002707 0.000830 0.001546 -0.001989 -0.004031 0.000249 0.006577 0.008078 -0.000064 0.004239 0.010857 0.008504 -0.006502 0.008231 -0.005995 -0.003606 -0.002316 0.000581 0.000708 -0.001898 0.000931 0.005677 -0.002959 -0.005766 0.004268 0.004590 0.008252 -0.007624 -0.006996 0.001286 0.007546 -0.000669 0.008853 0.010376 0.000840 0.005828 0.008398 -0.003772 0.000285 0.005371 0.003831 -0.004247 0.003748 -0.005444 0.001474 0.003003 -0.001168 0.006665 0.003178 -0.003153 0.003203 -0.008916 -0.002900 -0.006265 -0.002441 -0.006141 -0.004506 0.002619 0.002144 0.000963 0.000712 -0.003538 0.000269 -0.003059 -0.003997 -0.007214 0.001425 0.009181 0.011594 0.005225 0.000434 0.004817 0.001753 0.005074 0.000344 -0.004988 0.000514 0.003441 -0.005705 0.004734 0.001777 0.004552 -0.006531 0.000349 0.009460 -0.007776 -0.001077 0.004491 0.004842 -0.003436 -0.001646 -0.007452 0.001889 0.005089 0.005987 0.001644 
여성 0.003264 -0.000314 0.003298 -0.003235 -0.003105 -0.000157 0.003817 0.001480 -0.000389 -0.003766 0.007023 0.006409 0.003342 0.004295 0.010172 0.009442 -0.000399 0.003715 -0.003868 0.000902 -0.001828 -0.000097 0.005689 0.004033 0.005769 0.000002 -0.009323 -0.005712 0.002740 -0.003037 0.007043 -0.002663 -0.005983 -0.001233 0.007189 -0.001404 0.004815 0.000107 0.002696 0.001610 0.005115 -0.007187 -0.001111 0.007284 0.004023 0.000435 0.004085 -0.007499 0.005658 -0.000174 0.004156 0.006440 0.008500 -0.002005 0.004063 -0.001408 -0.002741 0.002822 0.003227 -0.006865 -0.002739 -0.000248 0.000838 -0.002960 -0.007189 -0.005426 0.000930 -0.001325 -0.000538 -0.001116 0.003270 0.004708 0.002532 0.004846 0.002626 0.005539 0.006090 0.004966 -0.003109 0.002057 0.003097 0.006162 -0.002714 0.008766 0.000754 0.005420 -0.002315 0.002287 0.008521 -0.005863 0.000043 0.002699 0.006025 0.002156 0.000622 -0.003424 0.002446 0.002352 0.001781 -0.000018 
왜 0.010266 -0.005360 0.002431 -0.008898 -0.002108 -0.004980 0.006609 -0.008069 -0.003368 -0.004609 0.007323 0.003590 0.006671 0.002368 0.007753 0.005819 -0.005048 0.010631 -0.014288 -0.004362 -0.003426 0.009810 0.009342 0.001927 0.002479 0.009686 -0.012653 -0.010353 0.005537 -0.000360 0.007761 -0.005095 -0.008122 0.000758 0.009342 -0.010112 0.011527 0.005652 -0.000865 0.004675 0.008077 -0.012229 0.009137 0.010023 -0.001208 -0.001222 -0.002618 -0.010290 0.008621 0.005836 0.006194 0.005469 0.012250 0.002051 0.006464 -0.002303 -0.004608 0.002405 -0.001040 -0.010519 -0.011916 0.000684 0.008844 0.002867 -0.007613 0.000001 -0.003995 -0.006852 -0.008307 0.000002 0.002196 0.010010 0.013168 0.001225 0.003345 0.005347 0.002090 0.005724 -0.003330 -0.008674 0.000377 0.006491 -0.014950 0.011566 -0.008235 0.003986 -0.009576 0.001689 0.008576 -0.010710 -0.004349 0.006163 0.000591 -0.008464 -0.010827 -0.007866 0.002972 0.003421 0.007411 0.002583 
두 0.000946 0.000056 -0.003204 -0.001616 0.003878 0.001847 -0.000084 0.000954 0.000764 -0.003780 -0.000118 -0.001721 0.003837 -0.003032 -0.000674 0.002891 -0.000223 -0.001783 -0.004216 -0.002784 -0.002133 0.004502 0.005054 0.004796 0.001431 0.004302 -0.006173 -0.006783 0.002166 -0.000866 0.003869 0.001778 -0.002435 0.001334 0.002289 -0.002809 -0.003090 0.003538 -0.002345 -0.000742 -0.001030 -0.000393 0.003609 0.002595 0.000531 -0.000472 0.003599 -0.002337 0.006682 0.002915 -0.001920 0.000273 -0.001708 -0.001739 -0.003350 -0.002315 0.001613 -0.003163 0.001635 0.001096 0.002513 -0.002909 0.003518 -0.002525 0.000847 -0.001742 -0.000428 -0.001760 -0.000259 0.002652 0.002106 0.006241 0.007859 0.001446 0.002588 0.001644 0.000571 0.004023 -0.002514 -0.005621 0.001647 -0.001473 -0.000647 0.003701 0.001344 0.003474 -0.000151 -0.001713 -0.000026 -0.003693 0.004100 0.000314 -0.000017 -0.004589 -0.001233 -0.001399 0.002542 0.003420 -0.001531 0.000625 
우리는 0.008675 0.001704 0.000280 -0.001615 0.002436 0.002589 0.002230 -0.003344 0.000047 0.003169 0.000547 0.005561 -0.001608 0.003202 0.007005 0.009406 -0.001704 0.008658 -0.002383 0.004528 -0.003907 0.003691 0.004234 -0.001562 0.000214 0.006281 -0.006429 -0.003745 0.005447 -0.002980 0.001775 -0.007760 -0.004488 0.003905 0.001089 -0.003411 0.008902 0.005306 -0.000691 0.001133 0.000437 -0.001334 0.002226 0.007262 -0.004242 -0.003524 -0.003498 -0.003809 -0.000534 0.006689 0.003752 0.006175 0.010472 0.002456 0.004976 -0.007428 -0.003721 -0.000059 0.004518 -0.008883 -0.003615 -0.001553 0.000478 0.004261 -0.004915 -0.004968 -0.002726 -0.000667 -0.004137 -0.001711 -0.003917 0.007593 0.008839 0.005007 0.002822 0.004489 0.007307 0.002446 -0.006647 -0.006745 -0.000582 0.005024 -0.009271 0.007024 0.000753 0.002126 -0.008141 -0.001733 0.002330 -0.008366 -0.004639 0.000211 0.001395 -0.006279 -0.005336 -0.008440 -0.005333 0.005198 -0.002746 -0.001717 
일다 0.000481 0.000836 0.008134 -0.003738 0.003117 0.000361 0.003652 -0.001506 0.000179 0.000461 0.004617 0.008019 0.006819 0.007877 0.005670 0.009963 -0.008582 0.008945 -0.009420 -0.001870 -0.007941 0.001289 0.002987 -0.004092 0.005277 0.007773 -0.005307 -0.006042 -0.001186 0.000741 0.009806 -0.002640 -0.003113 -0.001620 0.007061 -0.007538 0.001564 0.005806 -0.000249 0.008477 0.000352 -0.005711 0.004605 0.011884 0.000290 0.003132 0.001131 -0.008378 0.000813 0.006411 0.004596 0.010495 0.002549 -0.003682 0.008218 -0.004435 -0.000812 -0.001053 -0.000008 -0.003511 -0.009352 0.003589 0.007405 0.005449 0.000148 -0.000063 0.000749 0.002303 -0.009528 -0.001818 0.004268 0.006787 0.009229 0.006445 0.006683 0.002171 0.003506 0.005821 -0.004779 -0.001997 0.000282 0.005151 -0.009812 0.009343 -0.005811 -0.000356 -0.005439 -0.002842 0.007746 -0.003155 0.001213 0.007531 0.000495 -0.000507 -0.002527 -0.001572 -0.004699 0.006061 0.001934 0.005611 
일을 0.004178 0.001458 0.005429 -0.004490 0.003009 0.003448 0.000529 -0.009422 0.004121 -0.003775 0.007440 0.005792 -0.001100 0.004557 0.009553 0.007280 -0.000501 0.011054 -0.004322 0.002182 -0.000576 0.001471 0.006706 0.001480 0.009429 0.009078 -0.007652 -0.004989 0.002348 0.004120 0.004858 -0.002961 -0.002606 0.001430 0.003749 -0.002419 0.005329 0.006512 -0.000546 0.004130 0.004387 -0.006624 0.007123 0.011468 -0.003467 0.004387 0.001985 -0.010490 0.009321 0.006242 0.007962 0.007874 0.009447 0.001981 0.004604 -0.004631 0.000059 -0.001273 0.000759 -0.009443 -0.008181 -0.004619 0.000660 -0.002013 -0.000811 -0.005602 -0.004650 -0.001640 -0.007411 -0.000622 -0.000572 0.008245 0.011900 0.002595 0.003091 0.005344 0.004209 0.009697 -0.008357 -0.001324 -0.002239 0.005461 -0.010124 0.002308 0.000801 0.006016 -0.005716 0.003991 0.006941 -0.002803 -0.004761 0.002433 0.004113 -0.000681 -0.004653 -0.004496 0.001627 0.006627 0.001627 0.004863 
된 0.003465 0.001795 0.003251 -0.010654 -0.002025 -0.002155 -0.002162 -0.001691 0.001058 -0.003024 0.004864 0.008014 0.006891 -0.000757 0.007095 0.011556 -0.008733 0.010873 -0.008611 0.001791 0.000623 0.000983 0.004195 0.002918 0.002845 0.005113 -0.006966 -0.005633 -0.000988 0.006129 0.003823 -0.003231 -0.006804 -0.001900 0.003500 -0.006543 0.008312 0.009634 0.002277 0.008724 0.010006 -0.008805 0.007088 0.004748 -0.003250 -0.004067 -0.004285 -0.011943 0.003026 0.006228 0.001644 0.007187 0.003488 0.003771 0.004930 -0.009434 -0.007578 0.002075 -0.001273 -0.010445 -0.005082 -0.001752 -0.000887 -0.001013 -0.007497 0.000760 0.000352 -0.000019 -0.003733 -0.006061 0.001169 0.009374 0.011367 -0.001004 0.006498 0.007684 0.005682 0.010814 -0.006690 -0.005101 -0.002277 -0.002777 -0.007286 0.002458 -0.004724 0.005555 -0.009071 -0.002979 0.007213 -0.003782 -0.004801 0.007888 0.007475 -0.000948 -0.005414 -0.000936 -0.003462 0.005641 0.001477 0.006373 
모든 0.002702 -0.003998 0.007614 -0.002582 -0.005537 0.001536 0.004947 -0.007752 -0.004029 -0.002381 0.001454 0.005621 0.003774 0.004624 0.007539 0.001932 -0.003194 0.008610 -0.005836 0.002458 -0.007144 0.005472 -0.000451 0.004022 0.002709 0.000432 -0.005670 -0.002387 0.006430 0.002189 0.008635 -0.005169 -0.002968 0.000480 0.008337 -0.006453 0.000931 0.001189 0.002536 0.003904 -0.000842 -0.004587 -0.001573 0.009906 0.000647 0.001462 -0.000637 -0.009031 0.005847 0.000300 0.000624 0.008654 0.008461 -0.004472 0.002954 -0.006677 -0.007600 0.003012 -0.003001 -0.001210 -0.009164 0.000802 0.006111 -0.003658 0.001554 0.003139 0.002874 -0.006696 -0.003666 0.000463 0.003932 0.008108 0.004229 0.004921 0.002850 0.003512 0.006804 0.005406 -0.000131 -0.004740 -0.000321 0.001507 -0.004692 0.009023 0.000796 0.000681 -0.006438 0.004399 0.004560 -0.006470 0.001428 0.006320 0.003328 0.001188 -0.006242 -0.004297 -0.001506 0.001604 -0.002145 0.001603 
다양한 0.003610 -0.006151 0.006923 -0.003908 -0.001412 0.002595 0.002835 -0.002631 0.001685 -0.003031 0.005600 0.001926 0.002041 0.000394 0.003406 0.006232 -0.008866 0.000368 -0.004589 0.004986 -0.002602 0.005516 0.006834 -0.004421 0.008644 0.005520 -0.008785 -0.005894 0.004546 0.004458 0.007536 -0.000826 -0.008067 0.003081 0.007495 -0.006142 0.004195 0.009674 0.005422 0.007820 0.008057 -0.000579 0.007113 0.007080 -0.001994 -0.003244 0.001921 -0.003295 0.002401 0.003348 0.001782 0.002987 0.007094 0.002899 0.007896 -0.007828 -0.007428 0.003096 0.000014 -0.002559 -0.002880 -0.003438 -0.001297 0.001479 -0.004385 -0.005701 -0.002148 0.001943 -0.005787 -0.006667 -0.002834 0.008274 0.010235 0.006405 0.007201 0.007040 0.002581 0.010940 -0.006291 0.001733 -0.000574 -0.003208 -0.001929 0.005356 0.000067 -0.001308 -0.008450 0.002485 0.003438 -0.006585 -0.004041 0.003511 0.005053 0.002085 -0.009564 -0.005254 0.003950 -0.000841 -0.001453 0.005048 
나의 0.005851 -0.004421 0.003210 -0.006856 -0.002141 -0.002494 -0.000757 -0.007426 -0.003043 -0.005444 0.005971 0.007632 0.001102 0.002220 0.005724 0.012275 -0.003379 0.010808 -0.013152 0.004344 -0.001716 0.005413 0.001353 0.002465 0.002524 0.011654 -0.006221 -0.005146 -0.001594 0.000987 0.003772 -0.006403 -0.006168 -0.003112 0.003670 -0.007166 0.005068 0.012464 0.001175 0.004558 0.006874 -0.003985 0.008442 0.010832 0.002973 0.000421 -0.000343 -0.008029 0.003909 0.002468 0.006071 0.005898 0.004761 0.000535 0.001944 -0.008335 -0.008302 -0.001862 -0.000727 -0.010393 -0.003960 0.002847 0.004386 -0.000917 -0.006766 0.000616 -0.001776 -0.005597 -0.011688 -0.007093 0.002053 0.009616 0.012135 -0.000588 0.007385 0.007206 0.000280 0.007764 -0.003587 0.000192 0.001456 0.005545 -0.013557 0.005672 -0.006159 0.004230 -0.007858 0.001150 0.010780 -0.006984 -0.000252 0.003227 0.000186 -0.001956 -0.003263 -0.010917 0.003381 0.003158 0.001476 0.000483 
있다는 -0.001252 0.003050 -0.000803 -0.002275 -0.000906 0.002581 0.000128 -0.007791 0.004531 0.003476 0.004624 0.007112 -0.000596 0.003812 0.008016 0.001226 -0.003108 0.005016 -0.009421 -0.004374 -0.004177 0.000153 0.005072 0.000109 0.005257 0.006942 -0.007921 -0.006082 0.002454 -0.003073 0.007255 -0.007465 -0.003651 0.003628 0.001298 0.001190 0.005119 0.009441 -0.000393 0.007680 0.007531 -0.001604 0.003951 0.004865 -0.001855 0.004616 -0.000434 0.000116 0.005503 0.005811 -0.002380 0.004474 0.007773 -0.004512 0.007646 -0.006166 0.001909 -0.005984 -0.000531 -0.000918 -0.000688 0.002233 -0.000231 -0.001467 -0.002376 0.003303 0.004411 0.001181 0.000114 -0.006411 0.005153 0.002628 0.009032 0.006630 -0.000919 0.001479 0.001995 0.009275 -0.007094 -0.006270 -0.002829 0.002849 -0.009175 0.008903 -0.003877 0.003571 0.000334 0.002047 0.000685 0.000111 -0.005160 0.001163 0.003971 -0.005157 -0.002080 -0.000610 0.000897 -0.000280 -0.002389 0.006336 
큰 0.000121 0.001139 0.007508 -0.002806 -0.000398 0.002296 0.002815 -0.004550 0.003240 0.003084 0.004265 0.003054 0.004573 0.005259 0.002062 0.005712 0.000237 -0.000059 -0.005320 0.002361 0.002436 0.005425 0.002694 0.000991 -0.001461 0.007006 -0.001650 -0.002706 0.004775 0.003499 0.008277 -0.005428 -0.006457 0.001113 0.004473 0.000312 0.001954 0.009213 -0.001160 0.007348 0.003624 -0.007203 0.000938 0.007339 -0.004573 0.001489 -0.004185 -0.006225 0.006655 -0.000983 0.006378 0.008978 0.003246 0.002902 0.003944 -0.002050 -0.005471 -0.005328 0.001239 -0.001196 -0.001535 0.000771 -0.001393 0.001373 -0.000793 0.003794 -0.002151 0.002111 -0.003980 0.002345 0.001195 0.010440 0.008012 0.005366 0.005621 0.000168 0.004544 0.007044 -0.006766 -0.006349 -0.003527 0.003278 -0.007117 0.003926 0.002972 -0.002203 -0.006011 -0.001008 0.004116 -0.000991 0.000022 0.004285 0.002712 -0.002177 -0.003253 -0.008116 -0.000571 0.004174 0.003784 0.000679 
일이 0.009949 -0.006615 0.005665 -0.006522 -0.002206 -0.004534 0.004063 -0.006608 -0.005006 0.002052 0.004588 0.010327 -0.001548 0.003743 0.007813 0.004619 -0.002144 0.006303 -0.005541 -0.004293 -0.005202 0.008072 0.001083 -0.004416 0.006182 0.007836 -0.009805 -0.010909 0.006286 -0.002108 0.006430 -0.005822 -0.007681 -0.002606 0.005268 -0.011415 0.007415 0.006405 0.001507 0.003317 0.002469 -0.007167 0.001289 0.007820 0.002770 0.003619 0.003823 -0.008655 0.007069 0.007355 0.000114 0.012480 0.006283 0.004520 0.009974 -0.006911 -0.003552 -0.001890 0.002548 -0.012387 -0.005134 -0.000547 0.000643 0.004432 -0.003573 -0.005289 0.000087 -0.002151 -0.011677 -0.006857 0.004897 0.013263 0.011347 0.006294 0.006998 0.002639 0.001483 0.009042 -0.006926 -0.007261 -0.001662 0.005357 -0.005503 0.011851 -0.006090 0.001961 -0.010858 0.005572 0.004881 -0.003356 -0.000424 0.002387 0.002003 0.000136 -0.005389 -0.002195 0.003446 0.005454 0.000711 0.007027 
그러나 0.003508 -0.001311 -0.000937 -0.001042 -0.005646 0.002622 -0.000324 -0.005887 0.004795 -0.002621 0.003756 0.004727 0.000612 0.002861 0.009436 0.008113 -0.007410 0.008964 -0.009489 0.005011 -0.004997 0.002390 0.007994 0.004255 0.006858 0.000341 -0.001677 -0.001750 0.004410 0.001670 0.007754 -0.007769 -0.007981 -0.000122 0.003679 -0.004930 0.006555 0.003891 0.004621 0.007042 0.005340 -0.007852 0.004920 0.010597 -0.000603 0.003776 -0.002429 -0.004661 0.008383 0.004323 0.005738 0.005934 0.003071 0.002543 0.005402 -0.004608 -0.006771 0.002450 0.006209 -0.009263 -0.006562 0.003984 0.004350 0.004843 0.001681 0.002169 -0.003693 -0.005525 -0.003986 0.003020 -0.001635 0.004950 0.001423 0.000926 0.002216 0.006299 0.006867 0.003700 -0.007779 0.002204 -0.004029 0.003400 -0.001756 0.006384 -0.005846 0.002157 -0.008779 0.005302 0.010385 -0.008293 0.000286 -0.000390 0.002501 -0.004491 -0.005770 -0.003223 0.002003 0.005901 0.001857 -0.003109 
않은 0.004584 0.000339 0.001060 0.001895 0.003325 -0.003092 -0.001128 -0.005664 -0.002141 0.003157 -0.000853 0.004909 0.002277 0.002055 0.005254 0.007507 -0.004842 0.003973 -0.003904 0.002767 -0.005197 0.002530 0.000109 0.003164 0.007003 0.005445 -0.003126 -0.005527 0.000841 -0.001311 0.000841 -0.006065 -0.001944 -0.005143 0.000573 -0.004105 0.001968 0.001881 -0.002075 -0.000219 -0.001477 -0.007166 0.000811 0.003336 0.000543 0.001970 0.003442 -0.003770 -0.001920 0.003270 0.003808 0.000014 0.001227 -0.001966 -0.000357 -0.000735 0.000690 -0.004505 0.000943 -0.006574 -0.004443 0.003226 0.004391 -0.002337 -0.004876 0.002453 -0.000690 -0.002985 -0.007894 -0.001339 -0.000902 0.000747 -0.000565 0.005088 0.003427 0.002563 0.001961 -0.001388 -0.006115 -0.005149 0.001935 0.001650 -0.006168 0.007429 -0.004837 0.002318 -0.007172 0.003877 0.000007 0.000651 0.000147 0.003446 0.003111 -0.001248 -0.006826 -0.004825 0.000564 -0.001166 0.001938 0.003188 
다 0.007878 -0.002328 0.001464 -0.003816 -0.000686 0.000009 0.002968 -0.007162 0.002579 0.000872 0.002526 0.001116 0.004238 0.002489 0.004021 0.006135 -0.002301 0.002701 -0.008496 -0.001759 -0.002862 -0.000404 0.003647 0.000800 0.004696 0.004643 -0.001008 -0.006459 -0.000453 -0.002256 0.005800 -0.008781 -0.007071 -0.003775 0.004055 -0.006668 -0.001612 0.006710 0.005855 0.002644 0.000404 -0.001573 0.002790 0.002391 0.003370 0.004443 -0.005028 -0.008559 -0.000247 0.007362 0.001002 0.001091 0.006379 0.003016 0.005519 0.001352 -0.000583 -0.003985 0.002627 -0.008049 -0.002491 -0.005264 -0.001148 -0.000983 0.000752 -0.000722 -0.001154 -0.004256 -0.006986 -0.004161 0.003849 0.006957 0.003455 -0.002865 0.000718 -0.002103 -0.001784 0.000937 -0.000526 0.001387 -0.002755 -0.002695 -0.000740 0.004354 0.001754 0.004286 -0.001143 0.001455 0.001044 -0.001601 0.001426 0.007072 0.002976 -0.002524 -0.008648 0.000960 -0.004384 0.003659 0.000132 0.001798 
※ 0.003039 -0.006752 0.008132 -0.010406 0.002308 -0.002270 0.001518 -0.009480 -0.000387 -0.004079 0.008743 0.006095 0.001263 0.009278 0.006637 0.010038 -0.004146 0.003331 -0.004566 -0.001195 0.000263 0.001460 0.008207 0.003307 0.003726 0.009713 -0.010518 -0.006682 0.004998 0.003351 0.011339 -0.012204 -0.001700 -0.004685 0.003390 -0.008668 0.008823 0.010361 0.004846 0.009262 0.007699 -0.004085 0.002582 0.007477 -0.002847 -0.003817 0.002832 -0.009962 0.009672 0.004993 0.000140 0.006403 0.004664 0.004554 0.006279 -0.001379 -0.001278 -0.002884 0.004739 -0.010145 -0.006098 -0.004804 0.006056 0.001075 -0.001674 -0.002974 -0.004487 -0.000686 -0.006411 0.000442 -0.001610 0.004724 0.010192 0.004703 0.009730 0.000546 0.006706 0.006923 -0.007605 -0.002676 -0.004097 -0.002326 -0.010353 0.011842 -0.001130 -0.003146 -0.010729 0.004761 0.011583 -0.007766 0.000278 0.009272 0.007654 -0.008927 -0.008194 -0.008460 0.002932 0.000611 -0.002614 0.003479 
없이 0.007920 -0.001372 0.001645 -0.001436 -0.005099 -0.002588 0.002536 -0.004034 0.003546 0.001162 0.005334 0.006287 -0.001503 0.004820 0.005363 0.004664 -0.002214 0.005891 -0.002606 -0.001156 -0.000058 0.007108 0.006368 0.004375 0.006411 0.007310 0.000539 0.000554 -0.003413 0.000100 0.000828 -0.002786 -0.004714 -0.004470 0.001621 -0.003110 0.001843 0.000837 -0.003855 0.004715 -0.000544 -0.007777 -0.000142 0.004049 -0.002325 -0.004826 -0.002760 -0.008177 0.003449 0.005117 -0.000837 0.000649 0.000261 0.005329 0.002326 -0.003009 -0.003522 -0.002489 0.004486 -0.008292 -0.003999 0.001378 -0.000373 0.005070 0.001620 -0.002633 0.001561 0.001396 -0.003060 0.002133 -0.002546 0.006925 0.002969 0.003309 0.007463 -0.003182 -0.003018 -0.000486 -0.000706 0.002910 0.002547 0.004794 -0.004936 0.005384 0.002081 -0.000601 -0.005895 -0.001244 0.000840 -0.001752 0.003188 0.004594 -0.002612 0.000442 -0.005693 -0.004132 -0.000465 0.000080 -0.001973 0.002040 
아니다. 0.000677 -0.002209 0.001848 -0.007789 0.002614 -0.001070 0.003601 -0.004783 0.004727 -0.005573 -0.000478 0.002457 0.005202 0.000273 0.005347 0.004544 -0.004764 0.008232 -0.003091 -0.003830 -0.003864 0.002791 0.008591 0.001503 -0.000039 0.005380 -0.008797 -0.005779 0.006450 -0.002242 0.007450 -0.007479 -0.004311 -0.001857 0.001941 -0.006470 0.007369 0.008832 -0.000394 0.004958 0.003452 -0.010659 0.001700 0.007270 0.003115 0.004478 -0.005469 -0.001089 0.006010 -0.000731 0.006726 0.007047 0.010861 0.005322 0.005501 -0.001643 0.000477 -0.006247 0.004343 -0.009345 -0.005847 -0.002669 -0.001514 -0.001926 -0.006677 -0.005749 -0.000716 -0.004367 -0.004456 -0.001572 0.001095 0.007932 0.006752 0.003848 0.005209 -0.001567 0.002168 0.002488 -0.003137 0.001685 0.000428 -0.001831 -0.005438 0.007772 0.001736 0.004482 -0.001748 0.000830 0.002606 -0.003451 -0.003351 0.006291 0.007911 -0.005810 -0.008751 0.000274 0.003026 0.007036 0.001484 -0.002521 
없다. 0.001229 0.003031 0.001471 -0.003851 -0.003596 -0.002063 -0.003833 -0.003637 0.001898 -0.001102 0.005785 0.003681 -0.002560 0.000755 0.010004 0.000949 -0.002341 0.003709 -0.009770 0.001692 -0.002798 0.005818 0.001549 -0.001781 -0.001339 0.003599 -0.005839 -0.005635 0.005603 0.001493 -0.000519 -0.005943 -0.004176 -0.001902 0.002599 -0.002937 0.002411 0.008597 -0.001271 0.003452 -0.000847 -0.001752 0.000391 0.006110 0.000488 0.001772 -0.000755 -0.007903 0.006945 0.006988 -0.001092 0.003170 0.006597 -0.004260 0.004373 -0.000290 -0.002942 -0.002124 0.003634 -0.001386 -0.007492 0.003993 -0.000809 0.002419 -0.006096 0.002035 0.000349 -0.003410 -0.008532 -0.006113 -0.004247 0.004451 0.000571 0.003013 0.007533 0.003206 0.002881 0.003729 -0.004649 -0.006916 -0.001648 -0.002066 -0.004493 0.000788 -0.003100 -0.000171 -0.006333 -0.001869 0.006857 -0.001430 -0.002901 0.002391 0.005478 -0.000209 -0.001889 -0.003940 0.003909 -0.001180 -0.002203 0.000095 
우리 -0.001049 -0.000328 -0.001628 -0.002074 -0.001075 -0.003524 0.002156 -0.003239 0.002695 0.001312 0.005450 0.006343 0.003807 0.002576 0.009596 0.004633 -0.000135 0.007623 -0.008220 -0.003681 -0.004409 0.001507 0.001513 -0.001712 0.001591 0.003872 -0.006500 -0.008418 0.002122 0.000651 -0.000329 -0.003162 -0.002036 -0.004618 0.001790 -0.001473 -0.000310 0.003234 0.003745 0.004571 0.003068 -0.007671 0.000902 0.004976 0.000817 0.001954 0.002583 -0.000713 0.003628 0.006134 0.001735 0.008548 0.001216 0.000613 0.002216 -0.007649 -0.003504 0.003288 0.003988 -0.006278 -0.000137 -0.004150 -0.001290 -0.000107 0.000088 0.000837 -0.003418 -0.002590 -0.000821 -0.001400 -0.000989 0.005833 0.002811 0.001926 0.000734 0.002229 0.001923 0.007775 -0.006354 0.002019 -0.000021 -0.001875 -0.008044 0.006552 -0.001410 0.001178 -0.008118 0.001597 0.000851 -0.004135 0.003432 0.002026 0.001258 0.001281 0.000996 0.001474 -0.001895 0.002794 -0.003613 -0.000804 
그렇게 0.006772 -0.004987 0.004963 -0.003855 -0.001887 0.000882 0.001984 -0.000436 -0.004978 -0.000792 -0.000216 0.001767 0.001885 0.005816 0.005142 0.008047 -0.001956 0.003531 -0.012212 0.001663 -0.007189 0.003348 0.005029 0.001158 0.001040 0.006173 -0.006152 -0.009294 0.000025 -0.001336 0.003437 -0.005301 -0.004684 -0.001333 0.006437 -0.006023 0.001673 0.008832 0.004936 0.008907 0.001558 -0.011949 0.005633 0.005025 0.001062 -0.000131 -0.003857 -0.006977 0.003490 0.005908 0.000875 0.006439 0.005432 -0.001042 0.002060 -0.006595 -0.004655 0.001415 0.003554 -0.011849 -0.001682 0.001861 0.007473 -0.001085 -0.008650 -0.000462 0.000736 -0.004982 -0.012140 -0.000620 0.000006 0.009793 0.009048 0.004202 0.009712 0.006550 0.004178 0.004916 -0.004435 -0.003286 0.004776 0.000428 -0.009969 0.005297 -0.000507 0.001666 -0.007891 0.001492 0.011495 -0.001931 0.000498 0.003778 0.007339 -0.004620 -0.007510 -0.010733 -0.004955 0.000116 0.001855 0.001266 
않는 0.004383 0.001937 -0.001070 -0.002231 0.003270 -0.005162 -0.002576 0.000840 -0.000995 -0.002963 0.005882 0.002471 -0.000709 0.001936 0.010830 0.005684 -0.002867 0.007758 -0.010806 -0.001495 -0.000801 0.000091 0.005869 -0.002740 0.003966 0.005651 -0.006696 -0.004487 0.006809 0.002389 0.006063 -0.007427 -0.001910 -0.001857 0.004214 -0.001447 0.008022 0.002555 0.006062 0.005117 0.006225 -0.006946 0.007337 0.009339 0.000096 0.003764 -0.000913 -0.004946 -0.000370 0.006293 0.005648 0.008613 0.010665 -0.002101 0.005420 -0.001620 -0.004909 0.003445 0.002654 -0.003833 -0.007840 0.004035 0.001109 -0.000493 0.001918 0.002040 0.002358 0.002087 -0.004945 0.000398 -0.001274 0.001853 0.006798 0.002268 0.007253 -0.000032 0.003077 0.002508 -0.004833 -0.002461 -0.000211 0.004685 -0.008739 0.006589 0.001404 0.004168 -0.008873 -0.002847 0.007877 -0.003108 -0.001009 0.009658 0.003073 -0.005137 -0.003869 -0.007185 0.004013 0.000957 0.003254 0.004955 
나를 0.007394 -0.003805 -0.000749 -0.006617 -0.003301 -0.005259 0.004496 -0.007297 -0.002326 0.000425 0.005742 0.004447 0.002325 0.001243 0.005292 0.005088 -0.004121 0.007970 -0.000512 0.001933 -0.006238 0.007082 0.001138 0.003721 0.002127 0.001221 -0.007484 -0.005624 0.004973 0.003376 0.005890 -0.004081 0.001380 -0.000042 0.004330 -0.002201 0.005500 0.008328 -0.002507 0.007107 0.003231 -0.001800 0.001322 0.005478 0.002453 -0.004589 -0.000434 -0.002943 -0.001970 0.006643 -0.000738 0.006619 0.000692 -0.000275 0.000415 -0.001553 -0.002674 -0.003012 -0.000646 -0.009342 -0.003675 0.000569 -0.002369 0.002798 -0.000432 -0.000860 0.002262 -0.002932 -0.001170 -0.004677 0.001140 0.007141 0.009197 -0.001786 -0.001820 0.005001 0.000995 0.007288 0.001840 -0.005842 -0.002999 0.001268 -0.008770 0.005038 -0.001939 -0.000856 -0.005847 0.005117 0.008106 -0.000777 0.002609 -0.000861 -0.001495 -0.005584 0.001045 -0.002826 -0.003877 -0.002507 0.004036 -0.000725 
것도 -0.000318 0.002589 0.000139 -0.003880 0.000971 0.002773 0.001825 -0.000488 0.003014 -0.005789 0.004006 0.006944 -0.001454 0.002703 0.005226 0.001184 -0.006219 0.000079 -0.007121 -0.003604 0.001071 0.001426 0.001093 -0.004016 0.004279 -0.000080 -0.005863 -0.000673 -0.001080 -0.003330 0.008018 -0.001032 -0.000441 0.002213 0.008164 -0.001345 0.007808 0.004732 0.004548 -0.000269 0.006722 -0.008937 0.005639 0.007050 0.002313 0.002472 -0.001396 -0.005827 0.004845 0.003051 0.004608 0.002146 0.001038 -0.003673 0.005865 -0.005236 0.001967 0.001432 0.004376 -0.006248 0.000907 0.003481 -0.000389 -0.002281 0.000518 0.002604 -0.003936 -0.005198 -0.010008 -0.005318 -0.002230 0.008137 0.001137 -0.002150 0.008289 0.001983 -0.002225 0.008678 -0.006053 -0.006155 -0.004286 -0.001747 -0.002560 0.004674 0.002248 -0.001092 -0.005952 -0.003863 0.006893 -0.003183 0.003726 0.004603 0.001863 -0.005464 -0.008755 0.000050 0.003213 0.006247 -0.003021 0.003802 
너무 0.007454 -0.001268 0.003585 -0.000901 -0.001976 0.002967 -0.001937 -0.002733 0.003416 0.002960 0.003923 0.003725 -0.002540 0.006854 0.004411 0.005925 0.001040 0.003242 -0.001564 0.003670 -0.004251 -0.000594 0.002099 -0.002232 0.004846 0.003064 -0.001956 -0.007587 0.005613 -0.000146 0.005858 -0.003405 -0.000103 -0.004279 0.003179 -0.003257 0.002585 0.009110 0.001687 0.008566 -0.001466 -0.006777 -0.001184 0.003955 0.004969 -0.004920 0.000191 -0.001530 0.000885 0.003778 0.000720 0.003733 0.000781 0.003164 -0.001000 0.000528 0.001935 -0.005690 -0.000296 0.000224 -0.000183 -0.003487 -0.002882 -0.003920 0.002380 -0.001660 -0.000412 -0.001165 -0.005735 -0.005486 0.002273 0.005352 0.002356 0.002173 -0.000929 -0.001957 -0.002443 0.004646 0.000538 -0.002408 0.000963 -0.002268 -0.000223 0.004118 -0.005221 0.001169 -0.001452 -0.001423 0.004649 -0.002253 -0.003018 0.007505 -0.001718 -0.006353 -0.000760 -0.004936 -0.000605 -0.001664 0.001555 0.001716 
위한 0.002556 -0.000492 0.003329 0.000961 0.002489 0.000588 -0.003662 -0.003221 -0.000698 0.002498 0.002570 -0.000212 0.006332 -0.001614 0.002572 0.009874 -0.002056 0.000485 -0.010228 0.005240 -0.003083 0.002193 0.006113 -0.004224 0.007505 0.004609 -0.006215 -0.007832 0.004624 -0.003622 0.008493 -0.001307 -0.000855 -0.004398 0.000803 0.000485 -0.000830 0.004224 -0.000179 0.008163 0.007637 -0.004240 -0.000705 0.001489 0.004721 -0.000961 -0.000995 -0.008878 0.005384 0.006072 0.005274 0.007476 0.009909 0.001663 0.000508 -0.005518 -0.002717 0.001586 -0.001965 -0.006424 -0.007729 0.003167 0.000393 0.000538 -0.005637 -0.002295 -0.002715 -0.001868 -0.009332 0.001355 0.002548 0.006465 0.006341 -0.002396 0.000590 0.000203 -0.000466 0.009201 -0.001999 -0.001457 -0.000494 0.004993 -0.006208 0.004524 -0.000938 -0.001078 -0.009027 -0.000212 0.004329 -0.003179 0.002752 0.005582 -0.000122 -0.005827 -0.001597 -0.001202 -0.000544 0.000691 -0.000184 0.006347 
몇 0.008295 -0.002458 0.003788 -0.003035 -0.006387 -0.004697 0.001238 -0.008919 -0.003738 -0.003813 0.006906 0.010174 0.005847 0.007877 0.006394 0.008778 -0.002735 0.003455 -0.007102 0.002213 -0.003778 0.009123 0.004857 -0.000800 0.003107 0.010194 -0.008465 -0.003006 0.006073 0.001216 0.011342 -0.011025 -0.002063 0.003435 0.008625 -0.009181 0.008975 0.008156 0.001959 0.007912 0.007914 -0.006685 0.008770 0.008866 0.005324 0.003875 0.002899 -0.008145 0.007634 0.004426 0.005952 0.003656 0.007920 -0.003575 0.002112 -0.007457 0.000186 -0.006164 -0.000281 -0.006134 -0.006992 0.000326 0.008849 0.006235 0.000138 -0.002461 -0.004250 0.000486 -0.012036 0.000120 0.004782 0.007131 0.011865 0.007608 0.007695 0.005117 0.002246 0.005358 -0.009491 0.000526 0.002979 0.003341 -0.004354 0.006479 -0.006418 0.005422 -0.007657 -0.001875 0.011084 -0.011609 -0.005363 0.011089 0.006241 -0.007153 -0.004085 -0.003558 0.003605 0.001267 0.000071 0.001683 
그런데 0.008210 -0.006502 0.000729 -0.000647 -0.001223 -0.004464 0.005807 0.000251 -0.003547 -0.001056 0.003252 -0.001410 -0.002719 0.007711 0.010735 0.003222 -0.008456 0.005663 -0.005473 0.003464 0.002395 0.006467 0.002095 -0.002378 0.001477 0.005891 -0.002593 -0.002961 0.005110 0.000375 0.001607 -0.002335 -0.002149 -0.000411 0.005902 -0.002743 0.003858 0.002877 0.006070 0.000632 -0.000801 -0.003812 0.003970 0.002898 -0.003912 0.003640 0.000352 -0.002170 0.008327 0.006131 -0.000100 0.001922 0.003112 0.005312 0.004277 -0.005195 -0.003258 0.002504 0.003842 -0.006229 -0.002048 -0.002183 -0.001492 0.003057 0.000908 -0.002591 -0.003892 -0.000242 -0.006371 -0.003302 0.000559 0.002101 0.008867 0.006464 0.001399 0.003762 -0.001151 0.000783 0.000148 -0.003150 -0.002186 0.001540 -0.001227 0.000718 -0.002533 0.002059 -0.006346 -0.004313 0.002020 0.000497 -0.003744 0.007072 0.002523 0.002411 0.000512 0.000303 -0.001051 0.000555 -0.002728 0.004357 
이렇게 0.003237 0.000528 0.001035 -0.001363 -0.002255 -0.004007 -0.003403 -0.005926 -0.002475 -0.001939 -0.000313 0.000817 0.003675 0.007436 0.010947 0.007884 -0.000161 0.007982 -0.000715 0.000324 0.001133 0.002116 0.007513 -0.004985 -0.001294 0.003519 -0.002617 -0.003410 0.003532 -0.001351 0.002117 -0.001505 -0.002698 0.003944 0.001622 -0.007651 0.006645 0.008978 -0.000719 0.002180 0.007473 0.000270 0.002383 0.004533 -0.001884 0.002312 -0.002730 -0.007574 0.000861 -0.001321 -0.002090 0.000928 0.004260 -0.002833 0.000791 -0.005720 -0.002213 -0.000198 0.003857 -0.003402 -0.000383 0.004720 0.005340 0.002010 -0.002236 -0.001993 -0.001257 -0.003067 -0.004330 0.000676 0.002129 0.005713 0.005934 -0.001273 0.005754 0.000875 -0.002001 0.001367 0.000709 -0.003449 0.005368 0.001706 -0.005372 0.001102 -0.002908 -0.003986 -0.000617 -0.001975 0.005546 0.000946 0.002639 0.000355 0.003120 0.000306 -0.003732 -0.003795 0.003674 0.005803 -0.000644 0.000474 
되는 0.005448 -0.004482 0.003109 -0.005058 0.003994 0.003162 0.005098 0.002605 -0.002362 -0.005215 0.001289 0.004510 -0.002898 0.000309 0.006587 -0.001479 -0.004716 0.005501 -0.003803 0.002972 -0.004741 0.005843 0.001853 0.002414 0.000876 -0.000043 -0.002135 -0.002716 0.000563 -0.001614 0.003970 -0.002657 -0.005928 0.001362 0.001443 -0.004737 0.003376 0.000723 0.004426 0.006729 0.002294 -0.003853 -0.002430 0.004805 0.003399 0.004529 0.002729 -0.006878 0.005343 0.005147 0.003330 0.003824 0.003126 -0.002872 0.002267 -0.003343 -0.001108 -0.004488 -0.002102 -0.003516 -0.006320 -0.001350 0.000163 -0.000100 0.002104 0.001820 0.002610 -0.002503 -0.007288 0.002878 -0.000063 -0.002312 0.003777 0.002226 0.003777 -0.000069 0.002543 0.001440 0.003149 -0.003969 -0.002653 -0.001329 -0.001444 0.004653 -0.004920 0.003024 0.002046 0.002426 0.000898 -0.003997 -0.000144 0.000448 -0.000769 0.000392 -0.000252 -0.006645 0.001573 0.003909 -0.002094 0.004594 
그래서 0.000656 0.000751 0.004646 -0.003044 0.002239 0.001561 0.003030 0.001759 0.001250 0.002134 0.001040 0.004876 0.003455 0.002993 0.006635 -0.000453 0.001732 -0.002188 -0.005893 -0.001002 -0.000683 0.006172 -0.002351 -0.003291 -0.002535 0.004496 0.001471 -0.007105 -0.000025 0.000940 -0.002596 -0.003515 0.001686 0.004317 0.002386 -0.003228 -0.001929 0.000426 0.001779 0.000174 0.004033 0.000823 0.004016 0.006682 0.004667 -0.000977 0.000071 0.002217 0.003851 -0.003343 0.005269 0.006618 -0.000997 -0.002387 -0.001383 0.003116 0.002862 0.002052 -0.000530 0.000003 -0.003844 0.002975 0.000883 0.003721 0.002363 -0.001363 0.002978 -0.003574 -0.003817 0.003497 -0.001883 0.003834 0.007764 0.003016 0.003464 0.001385 0.006166 0.002512 -0.003675 -0.002875 -0.004756 0.000888 -0.000948 -0.002351 -0.004019 0.001334 -0.007042 0.002327 0.006922 -0.004216 0.002052 -0.001221 -0.000528 0.003072 0.002300 -0.002618 -0.002960 0.003524 0.002162 -0.002857 
사람이 0.003832 -0.007733 0.004948 -0.010585 0.001889 -0.003037 -0.003121 -0.004943 -0.000674 0.000015 0.008657 0.005283 0.003613 0.001595 0.006296 0.012196 -0.005725 0.008314 -0.013239 0.000684 -0.004287 0.002749 0.007756 0.001976 0.002322 0.003051 -0.013519 -0.003501 0.001762 0.002166 0.009857 -0.006414 -0.001986 0.000467 0.011409 -0.008014 0.008724 0.013587 0.001822 0.006191 0.006288 -0.011455 0.003487 0.012705 0.001552 -0.003973 0.000140 -0.007341 0.010324 0.006095 0.006070 0.005982 0.005421 0.003689 0.008454 -0.009201 -0.008701 -0.001411 0.005703 -0.012406 -0.002507 0.000703 0.006414 -0.001277 -0.001938 -0.005715 0.000526 -0.002512 -0.011132 -0.001979 -0.001298 0.004293 0.007183 0.002285 0.009647 -0.001112 0.002017 0.005478 -0.004145 -0.004520 0.000204 0.001714 -0.008892 0.012211 -0.003958 0.004084 -0.009886 0.004232 0.012219 -0.009871 0.003906 0.006754 0.005449 -0.000321 -0.004589 -0.002263 0.002176 0.000676 0.000267 0.006295 
때문에 0.001401 0.000565 0.004916 -0.001694 0.002868 0.000027 0.000011 -0.001458 0.003393 -0.003993 0.006176 0.007799 0.005929 0.002288 0.010919 0.006416 0.000087 0.008708 -0.003018 0.005180 -0.001880 0.005300 0.001889 0.002208 0.007297 -0.000742 -0.003276 -0.004494 -0.002302 0.002532 0.002827 -0.005868 -0.003361 -0.002260 0.008759 -0.002549 0.005282 0.009250 -0.002883 0.000960 0.006262 -0.009256 0.006159 0.002377 -0.001098 -0.000923 0.001348 -0.004206 0.007033 0.003064 0.006415 0.009081 0.006405 0.000403 0.003936 -0.000648 -0.004488 -0.002636 0.004550 -0.007434 -0.008804 0.000758 -0.001317 0.002405 -0.002045 -0.004944 -0.002787 0.000782 -0.002544 0.000515 -0.002958 0.008910 0.006623 -0.001305 0.001349 0.006588 -0.001887 0.010456 -0.004343 -0.004584 0.003984 0.002197 -0.007091 0.003371 0.001447 0.001521 -0.003094 -0.004304 0.005872 -0.002678 -0.001050 0.005747 0.004220 0.000781 -0.006482 -0.003054 -0.000915 0.002322 0.001373 0.000256 
사람들이 0.000107 -0.000672 0.006760 -0.005446 0.000739 -0.000039 -0.000909 -0.002944 -0.003539 0.001780 0.003525 0.001695 0.005312 -0.001714 0.001966 0.008036 -0.000978 0.006710 -0.007197 -0.001789 0.003124 0.001085 0.003195 0.000153 -0.000809 0.001100 -0.003813 -0.001099 -0.001617 0.001956 -0.000350 -0.001609 -0.004340 0.003939 0.004324 -0.007339 -0.002066 0.005249 0.004695 0.001167 0.005618 -0.000528 -0.001558 0.002757 0.005148 0.000485 0.001994 -0.001568 0.004569 0.005246 0.001201 0.002869 -0.001058 0.004536 0.005212 -0.005859 -0.003027 -0.001749 -0.002861 -0.008010 0.001886 -0.003318 0.003848 0.002010 -0.004841 -0.000122 -0.004030 0.002978 -0.007052 -0.001101 -0.001304 0.000540 0.005322 0.000613 0.007249 -0.001274 0.005663 0.003985 -0.002232 -0.002272 -0.000839 -0.000417 0.000637 0.004731 -0.006226 -0.002390 -0.005366 0.005181 0.007982 -0.003128 0.002991 -0.000353 0.002936 -0.005637 -0.003561 -0.002075 -0.002837 0.000505 0.003035 -0.001204 
있을 0.000731 0.001904 0.001646 -0.000749 0.002295 0.004043 0.003179 -0.004066 0.004826 -0.001600 0.002050 0.000718 0.002239 -0.001399 0.003411 0.005235 -0.001109 0.002568 -0.005319 0.003264 -0.001736 0.001396 -0.001775 0.002972 0.005510 0.006412 -0.001469 -0.004920 0.001424 -0.004186 0.005450 -0.004537 -0.003036 -0.004702 0.005109 -0.001859 0.007118 0.003317 0.003680 -0.000714 0.003852 -0.002103 -0.002587 0.007087 -0.003792 0.004088 -0.002783 -0.000588 -0.001500 0.001217 0.000031 0.001514 0.001759 0.004013 0.004690 -0.001683 0.001239 -0.004922 -0.003096 -0.009000 -0.008045 -0.000100 0.003726 -0.002873 -0.001354 0.001645 -0.002348 -0.000802 -0.003731 -0.004500 -0.003091 0.004260 0.008652 -0.001114 0.003206 0.001784 0.004941 0.004156 0.002355 0.003223 0.004466 -0.000777 -0.001950 0.006493 -0.000712 -0.002960 -0.000560 -0.004513 0.002253 0.000998 0.001255 0.000495 0.005014 -0.000615 -0.003001 -0.000730 0.003410 0.005250 0.004346 0.003635 
또한 0.005619 -0.000792 0.001642 -0.006205 0.002231 -0.000544 0.004173 -0.001568 0.002697 -0.001073 0.005017 0.004209 -0.002020 -0.001556 0.007638 0.001812 -0.000658 0.009180 -0.005192 0.002080 -0.004259 0.007381 -0.000740 -0.001297 0.007671 0.007888 -0.008832 -0.008964 0.002630 0.000469 0.007394 -0.008362 -0.006923 -0.005015 0.002670 -0.004943 0.000889 0.004363 -0.000089 0.004118 0.001172 -0.005049 0.005060 0.001640 0.000089 -0.001598 -0.001116 -0.003900 0.006971 0.000697 0.006116 0.006256 0.004426 -0.003194 -0.000479 -0.006288 -0.006126 0.002538 -0.001918 -0.004989 -0.006916 0.001460 0.001384 0.004216 -0.004715 -0.004124 -0.001643 -0.003329 -0.008108 -0.002616 0.000842 0.005339 0.006181 0.003504 0.004755 0.004437 0.004094 0.008173 -0.004104 0.001879 -0.003834 0.001164 -0.005445 0.004879 -0.000411 0.001558 -0.008205 0.004161 0.010473 -0.005324 -0.000142 0.008113 -0.000086 -0.001870 -0.000902 -0.007880 -0.003699 0.000216 0.006395 -0.001818 
전 0.003654 -0.001698 0.001314 -0.006179 -0.004883 0.003789 0.000605 -0.005403 0.002679 -0.004572 -0.000134 0.000376 0.005333 -0.000819 0.006291 0.007773 0.000028 0.007045 -0.003759 0.004728 0.001920 0.002670 0.008052 -0.001867 0.002992 0.005830 -0.008705 -0.006284 0.000020 0.001872 0.003250 -0.004389 -0.002094 -0.002168 0.008018 -0.003913 0.006523 0.003516 0.000355 0.008971 0.006158 -0.008551 0.007289 0.005349 -0.003477 0.001335 0.003257 -0.002726 0.008188 0.002849 0.004660 0.009368 0.001025 0.002757 0.001101 -0.006310 -0.002312 -0.003224 -0.001377 -0.006595 -0.003142 0.000298 0.005086 0.004795 -0.004267 -0.002977 0.002094 0.000441 -0.008939 0.000298 0.004264 0.008188 0.004435 0.001825 0.004109 -0.001019 0.003117 0.002808 -0.000305 0.000399 0.001274 0.000277 -0.004929 0.006452 -0.003629 -0.002800 -0.003843 -0.003351 0.002953 -0.006769 0.003827 0.007529 0.002057 0.001396 -0.008734 -0.003359 -0.000759 0.007420 -0.002096 -0.001705 
된다. 0.004110 -0.005137 0.000979 -0.003992 0.002916 0.001454 0.001961 -0.003121 -0.004029 0.002508 0.005361 -0.002485 -0.000624 0.005258 0.009082 0.006112 -0.005149 0.001240 0.000121 0.000449 -0.001086 -0.002014 -0.001055 0.002004 -0.000349 0.007025 -0.005869 -0.007420 0.000769 0.001936 0.004454 0.000147 0.002569 0.001519 0.004156 0.001119 -0.001121 0.003859 -0.000280 0.002914 0.004070 -0.006559 -0.002043 0.005679 0.001586 0.000542 0.002057 0.000528 0.005529 0.003304 0.002818 0.000158 -0.000481 0.004022 -0.000869 0.000174 0.001569 -0.005639 -0.003053 0.000852 -0.007717 -0.003991 0.002262 -0.002548 -0.002015 0.001029 -0.003768 -0.000259 -0.006357 0.003135 0.005291 0.001377 0.001446 0.006376 0.006974 -0.001892 0.003863 0.008416 0.000422 -0.004069 -0.001335 0.004391 -0.005666 0.005448 -0.002805 0.001843 -0.007031 0.004445 0.005382 -0.005925 -0.001721 0.007353 0.000356 -0.001799 0.000402 -0.005932 -0.002610 -0.001423 0.005780 -0.001402 
좀 -0.003862 0.001635 -0.002513 0.002974 -0.002026 -0.001298 -0.000225 -0.002241 -0.000308 0.003658 -0.000241 0.004008 0.002004 -0.001697 0.003237 0.001800 0.003241 0.005432 -0.003117 0.001538 0.003324 0.000689 0.003969 -0.000612 0.004627 -0.000500 -0.000864 -0.000773 -0.001724 -0.002055 0.001254 -0.005195 -0.003328 0.004432 -0.002769 0.002147 0.002395 -0.001438 -0.002440 -0.002836 -0.003134 -0.001120 0.001824 0.001898 0.002485 0.000079 -0.003325 -0.002617 -0.002804 0.003080 -0.002395 0.004849 0.005937 0.003759 -0.004149 -0.002517 -0.003130 0.003016 -0.000499 -0.001294 0.003530 0.003587 0.000320 -0.001252 0.000993 -0.002514 0.002522 -0.002262 0.002350 -0.000247 0.002002 -0.002509 -0.000588 0.000298 -0.000715 0.002399 -0.003590 0.002636 0.000547 0.003093 -0.000351 0.000433 -0.001240 0.005723 -0.001498 0.003645 -0.002401 0.000807 -0.003044 0.001590 0.001870 -0.001661 0.004361 0.000062 0.003140 -0.000459 -0.003868 -0.001721 -0.002671 0.005167 
많이 0.008501 0.001538 0.005015 -0.002039 -0.000408 -0.002539 0.003234 -0.002652 -0.005140 -0.002941 0.006467 0.007678 -0.000795 0.002305 0.007426 0.006664 -0.002560 0.006057 -0.003237 0.003660 -0.000920 0.007707 -0.000865 -0.004336 0.005503 0.005844 -0.011201 -0.009659 0.000519 -0.003573 0.005543 -0.009062 -0.008287 0.000743 0.000766 0.000047 0.000808 0.003210 0.004491 0.001215 0.002554 -0.000426 0.006747 0.002382 0.004020 -0.003337 -0.001379 -0.008619 0.001699 0.005889 0.001771 0.003267 0.002898 -0.002370 0.003151 -0.004764 -0.001618 0.001726 0.000178 -0.003606 -0.005907 -0.001453 0.000878 -0.002547 -0.002185 -0.005599 -0.003697 -0.007030 -0.007232 0.001244 0.000524 0.004469 0.002656 0.002851 0.000787 -0.001854 0.004445 0.007054 -0.004462 -0.001092 -0.002988 -0.001043 -0.005197 0.010065 -0.001940 0.005244 -0.009835 0.002184 0.009828 -0.002398 -0.000593 0.009596 0.003077 -0.001917 -0.000609 -0.003610 -0.001726 0.000999 0.002451 0.001490 
통해 0.005113 -0.005884 0.003140 0.001451 -0.002261 -0.000430 -0.003671 -0.003591 -0.004395 0.001899 0.003022 0.007233 0.002801 0.002180 0.007776 0.008558 -0.000667 0.008230 -0.000359 0.000837 0.001509 0.000704 0.006652 -0.002873 0.007637 0.005982 -0.004861 -0.005447 -0.003126 0.003198 0.003806 0.000694 -0.003856 0.000603 0.007804 0.000071 0.006398 0.004793 0.003421 0.002289 0.004082 0.000035 0.005138 0.001570 0.004529 0.000128 -0.003100 -0.001132 0.003613 0.002095 0.003647 0.006466 0.008747 0.004134 -0.000381 0.001203 0.000270 -0.005818 0.000211 -0.001265 -0.000640 0.003441 0.005448 0.000364 0.002315 0.000101 -0.003918 -0.002661 -0.007416 0.003063 0.005120 0.005259 0.001448 0.006469 -0.001535 0.003202 -0.000912 0.008862 0.000332 -0.003819 0.000527 0.001391 -0.006148 0.006195 -0.000383 -0.000123 -0.008591 0.001194 0.007066 -0.007940 -0.001501 0.000729 0.007443 -0.000352 -0.003805 0.001010 0.003585 0.001210 -0.002485 -0.001108 
해야 0.003321 -0.003135 0.001569 -0.006884 0.002010 -0.004423 -0.001858 -0.003550 -0.002164 0.001047 0.000520 0.003855 0.002340 -0.000051 0.013590 0.005334 -0.003537 0.012674 -0.006400 -0.000972 -0.000575 0.002962 0.003459 -0.004648 0.009890 0.003755 -0.010493 -0.010803 -0.000967 -0.003024 0.006731 -0.007956 -0.006461 0.000188 0.008739 -0.004615 0.011353 0.005430 0.002080 0.012034 0.007379 -0.005756 0.009099 0.007247 0.003086 -0.003411 -0.002732 -0.006288 0.010680 0.008646 0.000337 0.011208 0.006891 0.001891 0.006453 -0.001263 -0.005011 0.002085 0.006651 -0.010357 -0.005101 -0.000810 0.005142 0.005598 -0.006086 -0.004329 -0.004959 -0.006201 -0.009449 -0.003933 -0.001538 0.005789 0.005513 0.001858 0.001856 -0.001389 0.007356 0.007595 -0.002748 0.000582 0.001339 -0.000598 -0.006223 0.007072 -0.004508 -0.003140 -0.005782 0.005006 0.009159 -0.006595 -0.003377 0.009725 0.003482 -0.008326 -0.007271 -0.005560 0.000350 0.009007 0.006770 0.001630 
삶의 0.004910 0.003718 -0.000713 -0.005017 -0.005356 -0.000347 -0.000055 -0.006933 -0.004828 -0.002987 -0.000125 0.005487 -0.000496 0.005202 0.006759 0.004437 -0.001572 0.007736 -0.001433 0.003805 -0.005638 0.003180 -0.002233 -0.003643 -0.000327 -0.000694 -0.003684 -0.005995 -0.002357 -0.002781 -0.002153 -0.000424 -0.003971 0.004552 0.002744 0.002282 0.005130 0.003584 -0.001886 -0.000780 0.002249 -0.002594 -0.002559 0.002775 0.001203 -0.004799 -0.001647 -0.002224 0.006214 0.001984 0.001313 0.000863 0.003039 -0.003884 0.001242 0.000289 -0.004427 -0.002670 0.003939 0.000869 -0.007272 0.003543 0.001506 0.004863 -0.005391 -0.003496 0.002751 0.000190 -0.002026 0.003655 -0.000655 0.000993 0.006342 -0.000696 0.004697 0.001470 0.005389 -0.000979 -0.000119 0.001375 -0.000665 -0.003328 -0.003967 0.006974 0.000997 0.000521 -0.005983 0.001892 0.007106 -0.001822 -0.004892 -0.001762 0.004194 -0.001657 -0.001946 -0.002748 -0.002357 0.005069 0.005344 0.000292 
될 0.000008 -0.000626 0.004438 -0.000964 -0.001906 -0.002036 0.000014 -0.001324 -0.004449 -0.004448 -0.000844 0.003767 -0.002961 0.007547 0.006451 0.006639 0.000379 0.008079 -0.009593 0.000610 -0.006172 0.004865 0.006438 -0.003562 0.006505 0.007336 -0.006285 -0.008139 0.004533 -0.000988 0.002646 -0.008072 -0.003822 -0.003872 0.002923 -0.006171 0.004515 0.008971 0.001783 -0.000078 0.001131 -0.008538 0.002635 0.001850 -0.001346 -0.001140 -0.000116 -0.006471 0.003756 -0.001274 0.002032 0.003171 0.002064 0.001288 0.007023 -0.005442 0.000915 0.002700 -0.000229 -0.000464 -0.008453 0.002650 0.002623 -0.000676 0.001341 -0.001717 -0.002015 -0.001338 -0.001377 0.002891 -0.001986 0.010205 0.002465 0.000331 0.002208 0.002713 -0.001418 0.002419 0.000198 -0.004636 0.001082 -0.001354 -0.007858 0.003333 0.000525 -0.003678 -0.008253 0.001112 0.007062 -0.007381 0.004238 0.001647 0.002439 0.002362 -0.000696 -0.003748 0.000985 -0.000622 0.003184 -0.000604 
때문이다. 0.007268 -0.005296 0.003419 -0.004370 0.001804 -0.001387 0.000459 0.000611 0.000925 0.001117 0.000572 -0.001210 -0.002442 0.003163 0.004933 0.010068 -0.007988 0.005348 -0.007211 -0.003566 -0.007156 0.005483 0.003666 0.003578 0.007222 0.008047 -0.000490 -0.005049 0.002144 -0.000709 0.006564 -0.002791 0.001211 0.001018 -0.001180 -0.008028 0.002953 0.005057 0.003086 0.000011 0.005774 -0.001342 0.001228 0.007403 -0.001730 0.003468 -0.003667 -0.008449 -0.001223 0.002766 0.005454 -0.000273 0.005790 0.004298 0.006531 -0.002429 -0.005567 -0.005763 0.000138 -0.004121 -0.008823 -0.002200 0.001248 -0.003063 -0.002469 -0.005279 0.000222 -0.001342 -0.004527 0.002532 0.001862 0.003833 0.001599 -0.001235 0.004950 0.003349 0.000650 0.003281 0.000238 -0.006460 -0.002401 0.004293 -0.009662 0.002914 -0.001675 0.003052 -0.001557 0.003333 0.005878 -0.005064 0.002517 0.002399 -0.002253 -0.001183 -0.003132 -0.000048 -0.003454 -0.001417 0.001873 -0.002291 
않고 0.004798 -0.002274 0.003497 -0.000826 -0.000188 -0.004713 -0.002914 -0.006486 0.002878 0.003923 0.005234 -0.001071 -0.002419 0.000618 0.001045 0.001382 -0.005965 0.002035 -0.000624 -0.003151 -0.001589 0.005092 0.003758 0.002189 0.006906 0.005638 -0.005352 -0.004108 0.000744 -0.000769 0.005467 -0.000862 -0.003559 -0.003726 -0.001144 -0.006299 0.005646 0.001402 -0.002076 0.003183 0.004913 -0.005627 0.003263 0.005780 -0.000649 0.004597 -0.001317 -0.002228 -0.001751 0.002125 0.005339 0.003469 0.000496 0.003828 -0.000719 -0.000946 0.001980 -0.000754 0.000223 -0.007996 -0.001654 0.003522 0.003593 -0.001834 0.002300 0.001659 -0.002931 0.002458 0.000156 -0.003974 -0.002205 0.008835 0.000357 -0.000261 0.007580 0.002928 0.006644 0.000703 -0.003476 -0.000561 0.001244 -0.001961 -0.005618 0.002816 -0.000788 -0.000767 0.001302 -0.001972 0.008721 -0.005256 0.001916 0.007249 0.000078 0.002629 -0.002385 -0.003946 -0.001397 0.001424 -0.000526 0.005949 
몸을 0.004752 -0.000906 0.005101 -0.003045 -0.003714 0.001366 0.005610 -0.002985 0.000291 -0.002373 0.000514 0.001962 0.002090 0.009575 0.012906 0.007063 -0.005630 0.012648 -0.014440 0.004230 -0.008763 0.008381 0.006771 0.004801 0.002527 0.008447 -0.007047 -0.006149 0.002925 0.006548 0.005486 -0.011584 -0.007838 -0.003069 0.008091 -0.006437 0.005187 0.010058 0.000523 0.010212 0.010842 -0.003790 0.008055 0.009553 0.000567 0.000003 -0.001926 -0.007522 0.005500 0.006310 0.004983 0.010795 0.007429 0.000457 0.005651 -0.009159 -0.003132 -0.004188 0.008066 -0.011032 -0.006166 0.003093 0.001725 0.004601 -0.003256 0.001270 -0.000981 -0.005319 -0.008213 -0.000005 0.000962 0.005398 0.012805 0.008204 0.003842 0.006615 0.008137 0.009671 -0.009972 -0.000461 0.001585 0.000310 -0.008707 0.006306 -0.004061 -0.002495 -0.010220 0.000518 0.008822 -0.006670 -0.000071 0.002562 0.002820 0.000406 -0.010371 -0.004086 -0.000717 0.002487 0.004492 0.006644 
하지 0.004205 0.001023 -0.004428 -0.004772 0.003315 0.002217 -0.003632 -0.003250 -0.000328 -0.000672 -0.003400 0.004790 -0.001163 -0.001159 0.005765 0.001333 0.000553 -0.000571 0.003858 -0.000146 0.001671 0.002243 -0.000246 0.002988 0.003669 0.003711 0.003771 -0.002716 0.000781 0.002957 -0.004076 -0.003886 -0.003568 0.002550 -0.000409 -0.000006 0.004034 0.003111 0.002168 0.002396 0.004769 0.002973 0.002148 -0.002372 0.000530 0.003632 -0.000791 -0.004512 0.001888 -0.001523 -0.004323 -0.001596 0.003156 0.003911 -0.001013 -0.005532 -0.000093 -0.001482 -0.003112 0.000949 -0.001618 0.004599 0.002309 -0.004409 -0.002045 -0.001203 -0.002253 -0.001823 -0.004212 0.002667 0.003536 -0.002540 0.000634 0.003681 0.001690 0.002157 -0.001320 -0.000712 -0.001045 -0.005177 0.004463 0.002214 -0.001316 -0.003755 -0.001742 -0.003723 -0.005617 -0.003527 0.002812 -0.005454 0.001514 -0.004200 -0.004043 -0.002135 0.002567 -0.003510 0.001721 -0.000872 0.002948 0.002431 
밥을 0.006955 0.002079 0.007676 -0.000118 -0.001618 -0.000052 0.004715 -0.003226 0.002745 -0.005438 0.007193 0.003288 0.006483 0.003470 0.005821 0.006013 -0.002356 0.001296 -0.003628 -0.002198 0.001820 -0.000259 0.004250 -0.001358 -0.001044 0.002130 -0.004042 -0.000942 0.000468 0.001114 0.004168 -0.009456 0.000056 -0.000024 0.002368 -0.004228 0.004649 0.010652 0.001371 0.008868 0.000152 -0.007138 0.007626 0.002899 -0.002738 0.004020 -0.001417 -0.004152 0.006071 0.003834 0.004758 0.001429 0.001763 0.003760 0.006896 -0.004716 -0.000218 -0.000946 -0.002005 -0.007430 -0.008871 -0.003857 0.005027 0.000428 -0.007153 0.001934 0.001915 -0.005140 -0.004386 0.001215 0.003433 0.006897 0.006944 0.006598 0.004472 0.004515 0.001484 0.003195 0.001055 -0.001921 -0.003720 0.000100 -0.001190 0.001484 -0.002386 -0.001977 -0.001448 0.003474 0.011110 -0.000044 0.004044 0.004946 0.000553 -0.006115 -0.002367 -0.005332 -0.002943 0.000813 0.004790 -0.002964 
되었다. 0.005530 -0.000492 0.007515 -0.006475 -0.000862 -0.004584 0.005285 -0.006904 -0.002624 -0.006679 0.007337 0.005852 0.002473 0.001616 0.009269 0.005435 -0.007734 0.005191 -0.011336 0.000562 -0.003062 0.004305 0.008488 -0.001970 0.001681 0.001033 -0.010017 -0.010662 0.000830 0.001735 0.004076 -0.006494 -0.002534 0.001005 0.000375 -0.008821 0.007401 0.006575 0.002409 0.002051 0.000026 -0.004123 -0.000160 0.002649 -0.004328 -0.003268 0.002884 -0.003968 0.002538 0.004296 0.005323 0.002623 0.001883 0.000563 0.000607 -0.000009 -0.007456 0.000288 0.004270 -0.009874 -0.003065 0.002431 0.002665 0.000753 -0.000929 -0.000143 -0.004710 -0.000942 -0.004163 0.001611 0.001058 0.007349 0.010271 0.003126 0.001192 0.002079 0.002428 0.010668 -0.005576 0.000630 0.004341 0.001545 -0.010655 0.005704 0.000413 0.001323 -0.005337 0.003076 0.012583 -0.007328 0.002747 0.004351 -0.000457 -0.001509 -0.001508 -0.007869 -0.001203 0.002194 0.005535 -0.000320 
등 0.004406 -0.002674 -0.003924 0.001903 -0.001748 0.004455 0.002503 0.001779 -0.002506 -0.003076 0.004341 0.002822 -0.003788 0.003871 0.004409 0.005714 -0.000964 -0.002221 -0.003924 0.000933 -0.005343 0.005385 0.002958 -0.003657 -0.002836 -0.001551 -0.002321 -0.001949 -0.003899 -0.002335 -0.003460 0.002135 0.002464 0.003569 0.002655 -0.002656 0.005131 -0.003549 -0.000340 -0.002584 -0.000570 -0.005309 -0.004430 0.002140 -0.003954 0.000511 -0.002778 0.004227 -0.002849 -0.003161 -0.000052 -0.002403 0.004486 -0.000913 0.003157 -0.005155 0.003929 -0.002079 0.004251 -0.005106 -0.002920 -0.004256 0.003797 -0.000423 -0.004563 -0.004295 -0.000059 0.002482 -0.004809 -0.001853 -0.002913 0.003119 0.002858 -0.001518 0.003882 -0.002491 0.003157 -0.003293 0.000395 0.003918 -0.000987 0.004163 0.000794 0.003400 0.003657 0.001698 -0.004423 0.002662 0.003106 -0.000654 0.000425 -0.001013 -0.000378 -0.003555 0.002579 -0.003476 -0.004750 0.004066 0.003088 0.005217 
